tree
version=v4
num_class=1
num_tree_per_iteration=1
label_index=0
max_feature_idx=29
objective=binary sigmoid:1
feature_names=SeniorCitizen tenure MonthlyCharges TotalCharges gender_Male Partner_Yes Dependents_Yes PhoneService_Yes MultipleLines_No_phone_service MultipleLines_Yes InternetService_Fiber_optic InternetService_No OnlineSecurity_No_internet_service OnlineSecurity_Yes OnlineBackup_No_internet_service OnlineBackup_Yes DeviceProtection_No_internet_service DeviceProtection_Yes TechSupport_No_internet_service TechSupport_Yes StreamingTV_No_internet_service StreamingTV_Yes StreamingMovies_No_internet_service StreamingMovies_Yes Contract_One_year Contract_Two_year PaperlessBilling_Yes PaymentMethod_Credit_card_(automatic) PaymentMethod_Electronic_check PaymentMethod_Mailed_check
feature_infos=[0:1] [0:72] [18.25:118.75] [18.800000000000001:8684.7999999999993] [0:1] [0:1] [0:1] [0:1] [0:1] [0:1] [0:1] [0:1] [0:1] [0:1] [0:1] [0:1] [0:1] [0:1] [0:1] [0:1] [0:1] [0:1] [0:1] [0:1] [0:1] [0:1] [0:1] [0:1] [0:1] [0:1]
tree_sizes=1373 1328 1285 1276 1277 1302 1270 1543 1220 1393 1301 1226 1527 1238 1375 1318 1212 1390 1445 1568 1427 1478 1581 1302 1631 1572 1570 1822 1310 1574 1547 1439 1472 1210 1484 1643 1577 1634 1641 1170 1456 1195 1349 1370 1183 1290 1280 1374 1370 1544 1243 1472 1531 1339 1530 1441 1437 1465 1254 1263 1352 1613 1256 1538 1447 1339 1552 1337 1539 1361 1374 1372 1899 1628 1269 1633 1537 1650 1181 1538 1652 1359 1652 1169 1382 1534 987 1351 1647 1172 1736 1075 1660 986 988 1450 1549 1453 988 1165 1459 985 1536 990 1451 1355 1083 1724 1540 1433 1348 979 1000 1812 1538 1263 1527 1808 889 1544 1337 1263 1542 1529 1606 1639 1339 890 1463 1459 1353 1457 1340 1457 1641 1341 1365 1342 1368 1248 903 1725 1058 1259 1055 1187 1541 1642 1344 1004 1556 1557 1364 1558 796 1556 1338 912 1367 1455 1353 1055 989 1559 1366 1459 1560 1057 1362 797 976 1558 1154 1170 1376 972 988 1734 1537 1733 1286 883 1076 1739 1152 1059 1068 883 1166 1826 1156 1344 1137 1064 1176 1042 1249 974 1526 1226 1161 1040 973 1225 1073 1520 1154 1519 1233 1522 1154 1037 1055 974 1523 956 1232 1141 1518 963 871 1232 1075 877 1238 901 871 1145 1260 867 963 879 1043 1085 1051 1146 991 1153 1145 960 910 898 870 1245 1242 867 1158 1163 968 871 1057 1156 874 1066 1072 1228 1188 794 1164 870 723 881 873 831 707 629 536 536 876 538 714 630 536 895 786 544 786 535 646 536 873 624 536 658 787 625 536 526 1136 715 662 628 529 609 873 621 527 710 874 612 611 698 1065 612 984 610 438 797 612 877 700 614 694 702 883 704 705 880 704 798 620 703 800 615 622 796 703 622 799 800 620 701 798 703 619 797 797 620 703 797 884 703 601 709 614 791 713 619 623 602 615 711 793 711 618 509 518 618 508 509 508 618 713 509 619 718 719 617 509 717 620 718 715 620 509 717 617 718 619 718 717 618 718 620 717 526 717 717 618 718 619 717 718 620 714 620 715 619 715 718 437 437 434 435 718 437 436 437 437 801 437 437 716 337 335 337 337 337 337 337 335 337 337 337 336 336 336 337 337 337 337 337 336 337 336 336 337 335 337 337 336 336 337 337 336 337 336 337 337 337 337 337 337 336 337 337 336 336 337 336 337 337 335 337 337 337 337 336 337 337 337 337 337 337 336 337 337 337 335 337 337 337 337 337 336 337 336 337 337 337 337 337 336 337 337 337 337 337 336 337 337 337 337 337 337 337 337 337 337 336 337 337 337 337 337 337 337 336 337 337 337 337 336 337 337 337 337 336 336 337 337 337 337 336 337 335 337 337 337 336 337 337 337 337 337 337 337 337 337 337 337 337 337 337 336 337 336 337 337 337 337 337 337 337 337 337 337 336 337 335 337 336 337 337 337 337 337 337 337 336 337 336 336 337 337 337 336 335 337 337 337 336 335 337 335 337 337 336 337 337 337 337 336 337 337 336 336 337 337 336 336 337 337 337 335 336 337 337 337 335 336 337 336 337 336 337 337 334 337 337 337 337 335 337 337 337 337 337 335 337 336 336 336 337 336 337 337 337 337 337 337 337 337 336 337 336 336 336 337 337 336 337 336 337 337 337 336 337 337 337 337 337 337 336 336 337 337 337 337 337 336 337 337 337 336 337 337 337 336 337 337 337 337 337 336 337 337 337 337 337 337 336 337 337 337 337 337 337 336 337 336 337 336 337 336 337 337 336 337 337 334 337 337 337 337 336 337 337 337 336 337 335 337 337 337 337 337 336 337 337 337 337 337 337 337 337 336 337 336 337 337 337 336 335 337 337 336 336 337 337 336 337 337 337 337 337 337 337 337 337 336 335 336 336 337 337 337 337 337 337 337 337 337 336 336 336 337 337 337 337 337 337 336 337 336 337 336 337 337 337 337 337 336 337 337 337 337 336 337 337 337 337 337 337 337 337 336 337 337 337 337 337 337 336 337 337 337 337 337 337 337 337 337 337 336 336 336 337 336 337 337 337 337 336 337 337 337 337 337 336 337 337 337 337 337 337 337 337 337 336 335 335 335 336 336 337 336 336 337 336 336 336 336 337 337 337 337 337 336 336 336 337 337 337 337 337 337 337 337 337 337 337 337 337 336 336 336 336 336 336 336 336 337 337 337 337 337 337 337 337 337 336 337 337 337 337 337 337 337 337 337 337 337 337 337 336 336 336 336 336 335 336 336 336 337 337 337 337 337 337 335 335 336 335 335 335 335 336 336 336 336 336 336 336 336 336 336 336 336 336 336 336 336 336 336 336 336

Tree=0
num_leaves=12
num_cat=0
split_feature=25 24 10 1 1 23 2 28 2 2 2
split_gain=660.226 526.536 234.601 80.8688 61.4281 29.8659 9.47368 2.54713 2.2661 0.50868 0.719773
threshold=1.0000000180025095e-35 1.0000000180025095e-35 1.0000000180025095e-35 5.5000000000000009 54.500000000000007 1.0000000180025095e-35 20.425000000000001 1.0000000180025095e-35 106.825 26.625000000000004 60.225000000000009
decision_type=2 2 2 2 2 2 2 2 2 2 2
left_child=1 2 3 6 8 -3 -1 -5 -4 -9 -11
right_child=-2 5 4 7 -6 -7 -8 9 -10 10 -12
leaf_value=-1.0182509777484969 -1.047777222779962 -1.0407573187846617 -0.96004279766856648 -1.0220143279507259 -1.0182509777484969 -1.0182509777484969 -0.98331882944929339 -1.0182509777484969 -1.0182509777484969 -1.0127571973768126 -1.0182509777484969
leaf_weight=34.7982057929039 232.57287880778313 113.75211644172668 332.4837030172348 104.39461660385132 24.855861246585846 96.109329879283905 90.358367413282394 6.9206515252590171 7.9928652346134177 34.213362157344818 9.9423444569110853
leaf_count=158 1177 572 1320 500 114 450 373 33 35 150 47
internal_value=-1.01825 -0.993279 -0.979906 -1.00493 -0.963932 -1.03159 -0.988772 -1.01825 -0.960741 -1.01552 -1.01433
internal_weight=0 855.821 645.96 280.628 365.332 209.861 125.157 155.471 340.477 51.0764 44.1557
internal_count=4929 3752 2730 1261 1469 1022 531 730 1355 230 197
is_linear=0
shrinkage=1


Tree=1
num_leaves=12
num_cat=0
split_feature=1 11 10 1 24 24 13 3 25 28 25
split_gain=623.575 272.984 248.742 93.9277 54.8591 34.5675 25.0007 17.1272 14.8488 7.69126 5.07757
threshold=17.500000000000004 1.0000000180025095e-35 1.0000000180025095e-35 54.500000000000007 1.0000000180025095e-35 1.0000000180025095e-35 1.0000000180025095e-35 36.175000000000004 1.0000000180025095e-35 1.0000000180025095e-35 1.0000000180025095e-35
decision_type=2 2 2 2 2 2 2 8 2 2 2
left_child=1 4 9 5 6 8 -1 -3 -4 -2 -5
right_child=2 7 3 10 -6 -7 -8 -9 -10 -11 -12
leaf_value=0.056892451185082127 -0.026327097162384096 0.0064413451954966139 0.03243016832736436 0 0 0 0.010375261653091262 -0.012652128653393028 0 0 -0.010571944880344158
leaf_weight=290.62040638923645 286.67961102724075 31.179225906729698 142.06431609392166 65.500759869813919 14.145415902137755 34.311157941818237 55.923010885715485 63.988212734460831 7.7854333668947211 50.972007021307945 51.133957296609879
leaf_count=1124 1452 135 580 306 68 162 242 319 38 245 258
internal_value=0 0.0382489 -0.00635486 0.0118197 0.049736 0.0248398 0.0519984 -0.00115455 0.030411 -0.0239787 -0.00497408
internal_weight=0 455.856 638.447 300.796 360.689 184.161 346.543 95.1674 149.85 337.652 116.635
internal_count=4929 1888 3041 1344 1434 780 1366 454 618 1697 564
is_linear=0
shrinkage=0.03


Tree=2
num_leaves=12
num_cat=0
split_feature=25 24 10 1 1 23 2 28 3 2 2
split_gain=595.064 460.044 192.657 71.6322 48.9415 28.5291 6.2784 2.18419 1.10838 0.411692 0.652797
threshold=1.0000000180025095e-35 1.0000000180025095e-35 1.0000000180025095e-35 5.5000000000000009 54.500000000000007 1.0000000180025095e-35 19.425000000000001 1.0000000180025095e-35 4912.3250000000016 26.625000000000004 60.225000000000009
decision_type=2 2 2 2 2 2 2 2 10 2 2
left_child=1 2 3 6 8 -3 -1 -5 -4 -9 -11
right_child=-2 5 4 7 -6 -7 -8 9 -10 10 -12
leaf_value=0 -0.028805411267254485 -0.021876722719822644 0.052941042373286569 -0.0036078180468828566 0 0 0.028661747717287873 0 0 0.0048931784307524942 0
leaf_weight=5.9420057982206336 227.18792003393173 111.6964655071497 347.49367858469486 104.05029544234276 24.855861246585846 95.777851924300194 122.44069935381413 6.9183663874864569 8.7512790560722333 34.676375448703766 10.025775119662283
leaf_count=28 1177 572 1318 500 114 450 503 33 37 150 47
internal_value=0 0.0232318 0.0353968 0.012419 0.0495542 -0.0128143 0.0273956 0 0.0522964 0.00221406 0.00333958
internal_weight=0 872.629 665.154 284.054 381.101 207.474 128.383 155.671 356.245 51.6205 44.7022
internal_count=4929 3752 2730 1261 1469 1022 531 730 1355 230 197
is_linear=0
shrinkage=0.03


Tree=3
num_leaves=12
num_cat=0
split_feature=25 24 10 1 1 23 2 28 2 2 2
split_gain=561.908 429.445 172.503 67.0028 43.4032 27.4775 6.54574 2.07248 1.00078 0.398469 0.634218
threshold=1.0000000180025095e-35 1.0000000180025095e-35 1.0000000180025095e-35 5.5000000000000009 54.500000000000007 1.0000000180025095e-35 20.425000000000001 1.0000000180025095e-35 106.825 26.625000000000004 60.225000000000009
decision_type=2 2 2 2 2 2 2 2 2 2 2
left_child=1 2 3 6 8 -3 -1 -5 -4 -9 -11
right_child=-2 5 4 7 -6 -7 -8 9 -10 10 -12
leaf_value=0 -0.028385035228166811 -0.021516900544250976 0.050351481648926319 -0.0035221405059137523 0 0 0.031021132161058423 0 0 0.004793176483139751 0
leaf_weight=35.179936096072197 223.98088917136192 110.50994466245174 355.77598674595356 103.87313315272331 24.855861246585846 95.777851924300194 94.756209999322891 6.9183663874864569 8.2396516650915128 34.753946647047997 10.025775119662283
leaf_count=158 1177 572 1320 500 114 450 373 33 35 150 47
internal_value=0 0.0223749 0.0339791 0.0120333 0.0472474 -0.0125592 0.0264051 0 0.0497848 0.00214059 0.00325691
internal_weight=0 880.667 674.379 285.507 388.871 206.288 129.936 155.571 364.016 51.6981 44.7797
internal_count=4929 3752 2730 1261 1469 1022 531 730 1355 230 197
is_linear=0
shrinkage=0.03


Tree=4
num_leaves=12
num_cat=0
split_feature=25 24 10 1 1 2 2 28 2 2 3
split_gain=531.432 402.008 154.041 63.3043 38.6047 26.5847 5.54688 1.96623 0.385609 0.616208 0.368497
threshold=1.0000000180025095e-35 1.0000000180025095e-35 1.0000000180025095e-35 5.5000000000000009 54.500000000000007 94.77500000000002 19.425000000000001 1.0000000180025095e-35 26.625000000000004 60.225000000000009 5291.8250000000007
decision_type=2 2 2 2 2 2 2 2 2 2 10
left_child=1 2 3 6 -4 10 -1 -5 -9 -10 -3
right_child=-2 5 4 7 -6 -7 -8 8 9 -11 -12
leaf_value=0 -0.027973814506321769 -0.018990506815077232 0.04748466079323535 -0.003438417091262881 0 0 0.026769102636398621 0 0.0046953013972118223 0 0
leaf_weight=5.9420057982206336 220.79765139520168 141.84646019339561 371.184993699193 103.69996379315853 24.855861246585846 54.856470078229904 125.2377956956625 6.9183663874864569 34.829779237508774 10.025775119662283 8.4108242839574796
leaf_count=28 1177 728 1355 500 114 253 503 33 150 47 41
internal_value=0 0.0215879 0.0326866 0.0117183 0.0451284 -0.0123095 0.0256008 0 0.00206862 0.00317597 -0.0184628
internal_weight=0 887.808 682.695 286.654 396.041 205.114 131.18 155.474 51.7739 44.8556 150.257
internal_count=4929 3752 2730 1261 1469 1022 531 730 230 197 769
is_linear=0
shrinkage=0.03


Tree=5
num_leaves=12
num_cat=0
split_feature=25 24 10 1 3 23 2 2 28 2 2
split_gain=502.697 375.285 138.527 59.2994 34.9138 26.2202 6.05563 2.69299 1.86517 0.373102 0.598747
threshold=1.0000000180025095e-35 1.0000000180025095e-35 1.0000000180025095e-35 5.5000000000000009 3090.3500000000008 1.0000000180025095e-35 20.825000000000006 95.625000000000014 1.0000000180025095e-35 26.625000000000004 60.225000000000009
decision_type=2 2 2 2 10 2 2 2 2 2 2
left_child=1 2 3 6 -4 -3 -1 -6 -5 -10 -11
right_child=-2 5 4 8 7 -7 -8 -9 9 10 -12
leaf_value=0 -0.027571200273473984 -0.020876450147384082 0.049081453905133229 -0.0033566060952448062 0 0 0.029839998537473208 0.015585633441309787 0 0.0045995076332878216 0
leaf_weight=41.911050423979759 217.64128078520298 108.37358240783215 313.74043989181519 103.5307098031044 38.945159077644348 95.407197222113609 90.680435493588448 50.054613411426544 6.9183663874864569 34.903917029500008 10.025775119662283
leaf_count=185 1177 572 1105 500 165 450 346 199 33 150 47
internal_value=0 0.0208303 0.031433 0.0113585 0.0431511 -0.0120234 0.0247011 0.0115709 0 0.00199813 0.0030967
internal_weight=0 894.491 690.71 287.97 402.74 203.781 132.591 88.9998 155.379 51.8481 44.9297
internal_count=4929 3752 2730 1261 1469 1022 531 364 730 230 197
is_linear=0
shrinkage=0.03


Tree=6
num_leaves=12
num_cat=0
split_feature=25 24 10 1 1 23 2 28 2 2 2
split_gain=476.759 352.976 124.979 56.2058 31.7764 25.2661 4.93166 1.76907 0.599989 0.360936 0.581817
threshold=1.0000000180025095e-35 1.0000000180025095e-35 1.0000000180025095e-35 5.5000000000000009 54.500000000000007 1.0000000180025095e-35 19.425000000000001 1.0000000180025095e-35 106.825 26.625000000000004 60.225000000000009
decision_type=2 2 2 2 2 2 2 2 2 2 2
left_child=1 2 3 6 8 -3 -1 -5 -4 -9 -11
right_child=-2 5 4 7 -6 -7 -8 9 -10 10 -12
leaf_value=0 -0.027176687794759225 -0.020534416114462408 0.043988588604981352 -0.0032766669455771471 0 0 0.025080899706977772 0 0 0.00450574882960588 0
leaf_weight=5.9420057982206336 214.5145448744297 107.22401034832001 375.09324850142002 103.36529591679573 24.96391162276268 95.407197222113609 127.72523188591003 6.9183663874864569 8.491302624344824 34.976397380232811 10.025775119662283
leaf_count=28 1177 572 1320 500 114 450 503 33 35 150 47
internal_value=0 0.0201613 0.0303472 0.0110762 0.041424 -0.0117823 0.0239967 0 0.043508 0.00192908 0.00301908
internal_weight=0 900.133 697.502 288.953 408.548 202.631 133.667 155.286 383.585 51.9205 45.0022
internal_count=4929 3752 2730 1261 1469 1022 531 730 1355 230 197
is_linear=0
shrinkage=0.03


Tree=7
num_leaves=15
num_cat=0
split_feature=25 24 10 1 1 2 2 28 3 3 3 3 2 2
split_gain=451.407 331.237 113.154 52.7176 28.4958 24.5757 5.5147 1.67769 0.802518 0.56651 0.563282 0.496349 0.349099 0.565398
threshold=1.0000000180025095e-35 1.0000000180025095e-35 1.0000000180025095e-35 5.5000000000000009 54.500000000000007 94.77500000000002 20.825000000000006 1.0000000180025095e-35 5829.3250000000007 36.175000000000004 226.02500000000001 4912.3250000000016 26.625000000000004 60.225000000000009
decision_type=2 2 2 2 2 2 2 2 8 10 10 10 2 2
left_child=1 2 3 6 11 8 9 -5 -3 -1 -8 -4 -9 -14
right_child=-2 5 4 7 -6 -7 10 12 -10 -11 -12 -13 13 -15
leaf_value=0.0032886365258383227 -0.02678980771027363 -0.01792179596563008 0.042184078502365996 -0.0031985592527095093 0 0 0.028997375303082776 0 0 0 0 0 0.004413973640381051 0
leaf_weight=27.143081530928612 211.41993010044098 143.04384282231331 379.98055173456669 103.20364266633987 24.96391162276268 54.780656456947327 85.474774658679962 6.9183663874864569 3.6712882220745078 15.164979830384253 7.168406829237937 9.2021208107471448 35.047258973121643 10.025775119662283
leaf_count=113 1177 751 1318 500 114 253 317 33 18 72 29 37 150 47
internal_value=0 0.019472 0.0292483 0.0107396 0.0397411 -0.011546 0.0231745 0 -0.0176007 0 0.0279792 0.041694 0.00186144 0.00294306
internal_weight=0 905.789 704.293 290.146 414.147 201.496 134.951 155.195 146.715 42.3081 92.6432 389.183 51.9914 45.073
internal_count=4929 3752 2730 1261 1469 1022 531 730 769 185 346 1355 230 197
is_linear=0
shrinkage=0.03


Tree=8
num_leaves=11
num_cat=0
split_feature=25 24 11 1 10 23 13 3 1 2
split_gain=428.39 310.78 104.567 58.4704 30.0426 24.1288 10.1577 5.47091 4.75754 1.82048
threshold=1.0000000180025095e-35 1.0000000180025095e-35 1.0000000180025095e-35 16.500000000000004 1.0000000180025095e-35 1.0000000180025095e-35 1.0000000180025095e-35 36.175000000000004 58.500000000000007 74.875000000000014
decision_type=2 2 2 2 2 2 2 10 2 2
left_child=1 2 3 6 -5 -3 -1 -4 9 -6
right_child=-2 5 7 4 8 -7 -8 -9 -10 -11
leaf_value=0.044673783050098691 -0.026410125914970262 -0.019921621955217843 0.004631501628156915 0 0 0 0.0063988193431922845 -0.0072570804684273993 0 0.023043997267724482
leaf_weight=316.10616667568684 208.35967999696732 105.14849944412708 30.489269718527794 66.146800920367241 11.700860992074011 95.035576820373535 53.057097613811493 52.928350105881691 15.860446482896803 164.01174327731133
leaf_count=1095 1177 572 126 315 45 450 213 260 73 603
internal_value=0 0.0188581 0.0282459 0.0323449 0.01527 -0.0112671 0.0413261 0 0.0208295 0.0221564
internal_weight=0 910.485 710.301 626.883 257.72 200.184 369.163 83.4176 191.573 175.713
internal_count=4929 3752 2730 2344 1036 1022 1308 386 721 648
is_linear=0
shrinkage=0.03


Tree=9
num_leaves=13
num_cat=0
split_feature=25 24 10 1 3 23 2 2 11 2 2 2
split_gain=406.336 292.5 97.5636 48.364 24.8525 23.2609 4.22987 3.77241 2.62481 3.03752 0.0646738 0.013207
threshold=1.0000000180025095e-35 1.0000000180025095e-35 1.0000000180025095e-35 3.5000000000000004 3090.3500000000008 1.0000000180025095e-35 19.425000000000001 95.625000000000014 1.0000000180025095e-35 58.375000000000007 19.425000000000001 60.225000000000009
decision_type=2 2 2 2 10 2 2 2 2 2 2 2
left_child=1 2 3 6 -4 -3 -1 -6 9 -5 -10 -8
right_child=-2 5 4 8 7 -7 11 -9 10 -11 -12 -13
leaf_value=0 -0.026037237827052789 -0.019595654568639133 0.041911444543516793 0.0053328788676105434 0 0 0.025255703516177223 0.013504417390514688 0 0 -0.0056937649835205719 0
leaf_weight=4.8844902962446204 205.33577546477318 104.04026886820793 331.58372740447521 96.084024652838707 40.081216081976891 95.035576820373535 102.71499712765217 51.569394618272781 5.8340657502412787 40.653198748826981 37.155349850654602 5.5588812679052344
leaf_count=23 1177 572 1105 422 165 450 388 199 28 192 186 22
internal_value=0 0.0182488 0.0272843 0.00994214 0.0369415 -0.0110388 0.0236463 0.00930011 0 0.00190301 -0.00533781 0.0247005
internal_weight=0 915.195 716.119 292.885 423.234 199.076 113.158 91.6506 179.727 136.737 42.9894 108.274
internal_count=4929 3752 2730 1261 1469 1022 433 364 828 614 214 410
is_linear=0
shrinkage=0.03


Tree=10
num_leaves=12
num_cat=0
split_feature=25 24 11 1 10 2 13 3 1 2 3
split_gain=385.655 275.634 93.3946 50.1914 26.6008 22.7101 7.15359 5.05065 4.07136 1.90418 0.794998
threshold=1.0000000180025095e-35 1.0000000180025095e-35 1.0000000180025095e-35 16.500000000000004 1.0000000180025095e-35 94.77500000000002 1.0000000180025095e-35 36.175000000000004 58.500000000000007 74.875000000000014 5829.3250000000007
decision_type=2 2 2 2 2 2 2 10 2 2 8
left_child=1 2 3 6 -5 10 -1 -4 9 -6 -3
right_child=-2 5 7 4 8 -7 -8 -9 -10 -11 -12
leaf_value=0.041541008798090619 -0.025670775172378587 -0.01709401907790925 0.0041117623633566622 0 0 0 0.0057132988870165049 -0.0071187106171122644 0 0.021409814018455254 0
leaf_weight=323.62285086512566 202.3499508947134 139.6507710069418 30.835180938243866 66.260692849755287 11.828078314661978 54.707673341035843 53.588726013898849 52.739302694797516 15.920471221208571 166.5624788403511 3.6244838386774054
leaf_count=1095 1177 751 126 315 45 253 213 260 73 603 18
internal_value=0 0.0176714 0.0263799 0.030201 0.0141526 -0.010815 0.0385056 0 0.0193374 0.0205527 -0.0167731
internal_weight=0 919.341 721.358 637.783 260.572 197.983 377.212 83.5745 194.311 178.391 143.275
internal_count=4929 3752 2730 2344 1036 1022 1308 386 721 648 769
is_linear=0
shrinkage=0.03


Tree=11
num_leaves=11
num_cat=0
split_feature=25 24 11 1 10 23 3 13 1 2
split_gain=366.392 259.104 87.3522 44.8787 25.1801 22.2151 4.84884 4.35404 3.77686 1.78427
threshold=1.0000000180025095e-35 1.0000000180025095e-35 1.0000000180025095e-35 16.500000000000004 1.0000000180025095e-35 1.0000000180025095e-35 36.175000000000004 1.0000000180025095e-35 55.500000000000007 74.875000000000014
decision_type=2 2 2 2 2 2 10 2 2 2
left_child=1 2 3 7 -5 -3 -4 -1 9 -6
right_child=-2 5 6 4 8 -7 -8 -9 -10 -11
leaf_value=0.039909434400656613 -0.025310394554475191 -0.019011317795956429 0.0040326853735832306 0 0 0 -0.0069811011338490542 0.0055798039981998105 0 0.021079911810171739
leaf_weight=327.50409278273582 199.40376031398773 102.04412180185318 30.88799487054348 66.260692849755287 11.828078314661978 94.679323226213455 52.562455952167511 53.701450124382973 22.045224398374557 161.52433577179909
leaf_count=1095 1177 572 126 315 45 450 260 213 100 576
internal_value=0 0.0171317 0.0255148 0.0291816 0.013717 -0.0105489 0 0.0370881 0.0187416 0.0202206
internal_weight=0 923.038 726.314 642.864 261.658 196.723 83.4505 381.206 195.398 173.352
internal_count=4929 3752 2730 2344 1036 1022 386 1308 721 621
is_linear=0
shrinkage=0.03


Tree=12
num_leaves=15
num_cat=0
split_feature=25 24 10 1 2 1 2 11 2 3 2 2 2 2
split_gain=348.045 244.529 83.0789 42.8642 21.4863 19.7932 3.5816 1.88096 2.21142 0.772568 0.590813 0.312184 0.11697 0.0756866
threshold=1.0000000180025095e-35 1.0000000180025095e-35 1.0000000180025095e-35 3.5000000000000004 94.77500000000002 54.500000000000007 19.425000000000001 1.0000000180025095e-35 58.375000000000007 5829.3250000000007 106.825 57.050000000000004 25.175000000000001 19.425000000000001
decision_type=2 2 2 2 2 2 2 2 2 8 2 2 2 2
left_child=1 2 3 6 9 10 -1 8 12 -3 -4 -8 -5 -9
right_child=-2 4 5 7 -6 -7 11 13 -10 -11 -12 -13 -14 -15
leaf_value=0 -0.024955777871973547 -0.016540139187355318 0.035451309149116421 0 0 0 0.023083904139097489 0 0 0 0 0 0.0044407989075418023 -0.0053424183822551779
leaf_weight=4.8886964023113242 196.49853357672691 137.38520090281963 399.55707269906998 4.2960593849420539 54.672382116317749 25.267314910888672 103.65598610043526 5.7941235601901999 41.072243005037308 3.6018534004688254 8.8787638545036298 7.2536468356847754 93.346587300300598 36.803917825222015
leaf_count=23 1177 751 1320 19 253 114 382 28 192 18 35 28 403 186
internal_value=0 0.0166041 0.024698 0.00866511 -0.0103325 0.0334929 0.021434 0 0.000938249 -0.0162215 0.0350644 0.0223874 0.00425508 -0.00498111
internal_weight=0 926.474 730.814 297.111 195.659 433.703 115.798 181.313 138.715 140.987 408.436 110.91 97.6426 42.598
internal_count=4929 3752 2730 1261 1022 1469 433 828 614 769 1355 410 422 214
is_linear=0
shrinkage=0.03


Tree=13
num_leaves=11
num_cat=0
split_feature=25 24 11 1 28 23 3 2 13 2
split_gain=330.587 229.837 78.4375 40.7846 24.3939 21.2157 4.49233 3.85822 2.47934 0.630198
threshold=1.0000000180025095e-35 1.0000000180025095e-35 1.0000000180025095e-35 16.500000000000004 1.0000000180025095e-35 1.0000000180025095e-35 36.175000000000004 54.175000000000004 1.0000000180025095e-35 89.975000000000009
decision_type=2 2 2 2 2 2 10 2 2 2
left_child=1 2 3 8 9 -3 -4 -6 -1 -5
right_child=-2 5 6 4 7 -7 -8 -9 -10 -11
leaf_value=0.037384137499100072 -0.024606627515163734 -0.018444725697947497 0.0035631187653456207 0 0 0 -0.0068470000383895882 0.022155671447354575 0.0049960341972492333 0.0029280510415155246
leaf_weight=333.10087256133556 193.63544715940952 100.10377652943134 31.195580005645752 82.548084735870361 11.932592481374739 94.333072260022163 52.376791700720787 123.66707663238049 54.137152016162872 46.154945239424706
leaf_count=1095 1177 572 126 363 54 450 260 446 213 173
internal_value=0 0.0160895 0.0238881 0.0273273 0.0125944 -0.0100749 0 0.0207585 0.0347972 0
internal_weight=0 929.55 735.113 651.541 264.303 194.437 83.5724 135.6 387.238 128.703
internal_count=4929 3752 2730 2344 1036 1022 386 500 1308 536
is_linear=0
shrinkage=0.03


Tree=14
num_leaves=13
num_cat=0
split_feature=25 24 10 1 23 1 2 28 11 2 2 3
split_gain=314.418 217.34 74.4637 39.5006 20.4668 17.5612 3.22023 1.77143 0.534516 0.80914 0.364198 0.296764
threshold=1.0000000180025095e-35 1.0000000180025095e-35 1.0000000180025095e-35 3.5000000000000004 1.0000000180025095e-35 54.500000000000007 19.425000000000001 1.0000000180025095e-35 1.0000000180025095e-35 60.225000000000009 57.050000000000004 4912.3250000000016
decision_type=2 2 2 2 2 2 2 2 2 2 2 10
left_child=1 2 3 6 -3 11 -1 -5 9 -9 -8 -4
right_child=-2 4 5 7 -6 -7 10 8 -10 -11 -12 -13
leaf_value=0 -0.024262674145745403 -0.018142160646064734 0.033276982936315855 -0.0028905921242268029 0 0 0.021691815653059641 0.0050829148056184634 0 0 0 0
leaf_weight=4.8900700062513343 190.81549075245857 99.069377914071083 404.4688515663147 122.1932527422905 94.333072260022163 25.418756619095802 105.09914948046207 42.527961939573288 6.3162038028240195 11.092436894774435 7.3118166327476493 9.5963746607303602
leaf_count=23 1177 572 1318 574 450 114 382 173 31 50 28 37
internal_value=0 0.015615 0.023159 0.00792991 -0.00986551 0.0314323 0.0201301 0 0.00225418 0.00347155 0.0210256 0.0328977
internal_weight=0 932.317 738.915 299.431 193.402 439.484 117.301 182.13 59.9366 53.6204 112.411 414.065
internal_count=4929 3752 2730 1261 1022 1469 433 828 254 223 410 1355
is_linear=0
shrinkage=0.03


Tree=15
num_leaves=12
num_cat=0
split_feature=25 24 11 1 28 2 3 2 13 3 2
split_gain=298.812 205.334 71.0443 36.8907 22.7812 19.8573 4.21151 3.32681 0.925419 0.761244 0.39939
threshold=1.0000000180025095e-35 1.0000000180025095e-35 1.0000000180025095e-35 16.500000000000004 1.0000000180025095e-35 94.77500000000002 36.175000000000004 54.175000000000004 1.0000000180025095e-35 5829.3250000000007 89.975000000000009
decision_type=2 2 2 2 2 2 10 2 2 8 2
left_child=1 2 3 8 10 9 -4 -6 -1 -3 -5
right_child=-2 5 6 4 7 -7 -8 -9 -10 -11 -12
leaf_value=0.035133863266605045 -0.023923665787737962 -0.015774617087884447 0.0031272881253378952 0 0 0 -0.0067457076389068537 0.020697611211748054 0.0044777594156258423 0 0.0023250094640684883
leaf_weight=337.70705755054951 188.03949126601219 134.22205680608749 31.476943090558052 82.790324673056602 11.959987580776213 54.604205071926117 52.2326380610466 125.25351025164127 54.502556562423706 3.5581385642290106 46.495242089033127
leaf_count=1095 1177 751 126 363 54 253 260 446 213 18 173
internal_value=0 0.0151385 0.0224365 0.0256844 0.0116266 -0.00966023 0 0.0194102 0.0327533 -0.0154559 0
internal_weight=0 934.803 742.418 658.709 266.499 192.384 83.7096 137.213 392.21 137.78 129.286
internal_count=4929 3752 2730 2344 1036 1022 386 500 1308 769 536
is_linear=0
shrinkage=0.03


Tree=16
num_leaves=11
num_cat=0
split_feature=25 24 11 1 28 23 3 2 1 2
split_gain=284.572 193.796 66.8819 33.0751 21.3553 19.5437 4.04244 3.06849 3.42635 0.382624
threshold=1.0000000180025095e-35 1.0000000180025095e-35 1.0000000180025095e-35 16.500000000000004 1.0000000180025095e-35 1.0000000180025095e-35 36.175000000000004 54.175000000000004 55.500000000000007 89.975000000000009
decision_type=2 2 2 2 2 2 10 2 2 2
left_child=1 2 3 -1 9 -3 -4 -6 -9 -5
right_child=-2 5 6 4 7 -7 -8 8 -10 -11
leaf_value=0.031672060689493679 -0.023589369347571394 -0.017600173730647116 0.0030675657575251164 0 0 0 -0.0066150316982693195 0.021605294383780047 0 0.0022751500171335989
leaf_weight=394.77057477831841 185.30816085636616 97.214277669787407 31.51582407951355 82.790324673056602 11.959987580776213 94.001545026898384 52.064194217324257 112.45953634381294 13.514791801571844 46.526580020785332
leaf_count=1308 1177 572 126 363 54 450 260 386 60 173
internal_value=0 0.0147147 0.0217707 0.0249059 0.0113133 -0.00941425 0 0.0188278 0.0200611 0
internal_weight=0 936.818 745.602 662.022 267.251 191.216 83.58 137.934 125.974 129.317
internal_count=4929 3752 2730 2344 1036 1022 386 500 446 536
is_linear=0
shrinkage=0.03


Tree=17
num_leaves=13
num_cat=0
split_feature=25 24 10 1 23 3 2 28 2 2 2 11
split_gain=270.568 183.211 66.0545 35.2732 18.8591 15.4682 4.1766 1.81252 1.751 0.610509 0.394261 0.624297
threshold=1.0000000180025095e-35 1.0000000180025095e-35 1.0000000180025095e-35 3.5000000000000004 1.0000000180025095e-35 3090.3500000000008 95.625000000000014 1.0000000180025095e-35 19.475000000000005 57.050000000000004 60.225000000000009 1.0000000180025095e-35
decision_type=2 2 2 2 2 10 2 2 2 2 2 2
left_child=1 2 3 8 -3 -4 -7 -5 -1 -10 11 -9
right_child=-2 4 5 7 -6 6 -8 10 9 -11 -12 -13
leaf_value=0 -0.023259571383223928 -0.017310366002530039 0.03269678522149394 -0.0032298470794272509 0 0 0.010430784123788504 0.00409307828493434 0.019710078247177337 0 0 0
leaf_weight=6.1574186980724326 182.62203423678875 96.226477950811386 350.87903526425362 122.7024167329073 94.001545026898384 41.488464742898941 53.637065693736076 43.230287089943886 105.65466775000095 7.4326530098915091 11.31178957223892 6.2752795517444602
leaf_count=28 1177 572 1105 574 450 165 199 173 377 28 50 31
internal_value=0 0.0142702 0.0211019 0.0068044 -0.00921557 0.0288115 0.00607792 0 0.0183114 0.0190437 0.0013284 0.00267525
internal_weight=0 938.997 748.769 302.765 190.228 446.005 95.1255 183.52 119.245 113.087 60.8174 49.5056
internal_count=4929 3752 2730 1261 1022 1469 364 828 433 405 254 204
is_linear=0
shrinkage=0.03


Tree=18
num_leaves=14
num_cat=0
split_feature=25 24 10 1 2 1 2 28 3 2 2 2 11
split_gain=257.612 173.623 61.103 33.4058 18.3523 13.9195 2.61452 1.71488 0.747607 0.520199 0.41804 0.378041 0.606912
threshold=1.0000000180025095e-35 1.0000000180025095e-35 1.0000000180025095e-35 3.5000000000000004 94.77500000000002 54.500000000000007 19.425000000000001 1.0000000180025095e-35 5829.3250000000007 57.050000000000004 106.825 60.225000000000009 1.0000000180025095e-35
decision_type=2 2 2 2 2 2 2 2 8 2 2 2 2
left_child=1 2 3 6 8 10 -1 -5 -3 -8 -4 12 -9
right_child=-2 4 5 7 -6 -7 9 11 -10 -11 -12 -13 -14
leaf_value=0 -0.022934074302215876 -0.015043489416895105 0.029521552112845656 -0.0031504841629295954 0 0 0.019209780601192723 0.0040048253675059823 0 0 0 0 0
leaf_weight=4.8914675414562216 179.98156562447548 131.20159497857094 413.25008633732796 122.5261344909668 54.538912534713745 25.654174223542213 107.51647071540356 43.297139883041382 3.5162774324417105 7.4326530098915091 9.1123346984386426 11.31178957223892 6.2752795517444602
leaf_count=23 1177 751 1320 574 253 114 382 173 18 28 35 50 31
internal_value=0 0.0138642 0.0204916 0.00662067 -0.00902074 0.0279143 0.0177854 0 -0.0147246 0.0185801 0.0292013 0.00126162 0.00259632
internal_weight=0 940.524 751.268 303.251 189.257 448.017 119.841 183.41 134.718 114.949 422.362 60.8842 49.5724
internal_count=4929 3752 2730 1261 1022 1469 433 828 769 410 1355 254 204
is_linear=0
shrinkage=0.03


Tree=19
num_leaves=15
num_cat=0
split_feature=28 1 10 1 11 24 11 2 0 2 1 25 1 23
split_gain=247.464 119.712 50.1652 35.6129 30.7205 24.9708 9.48106 4.65079 2.19739 1.97426 1.77306 1.48068 1.39634 2.84229
threshold=1.0000000180025095e-35 12.500000000000002 1.0000000180025095e-35 40.500000000000007 1.0000000180025095e-35 1.0000000180025095e-35 1.0000000180025095e-35 105.02500000000002 1.0000000180025095e-35 94.77500000000002 1.5000000000000002 1.0000000180025095e-35 58.500000000000007 1.0000000180025095e-35
decision_type=2 2 2 2 2 2 2 2 2 2 2 2 2 2
left_child=1 4 8 5 -1 6 7 -2 -3 -5 -6 -11 13 -4
right_child=3 2 12 9 10 -7 -8 -9 -10 11 -12 -13 -14 -15
leaf_value=0.01897617709044629 0.031324630305140218 -0.022250122597727798 0 0 0 0 0 0 0 0.0070597267961741844 -0.0049808490368069436 0 -0.0038417563061911072 0.0054231702142668592
leaf_weight=154.19209133088589 320.622593536973 242.91908913850784 52.735379308462143 43.152121737599373 27.785571247339249 14.778438240289686 11.190406635403631 6.6339143961668006 21.198560163378716 42.392331376671791 44.321930125355721 8.4571565389633161 58.534065991640091 70.296221137046814
leaf_count=540 1036 1463 212 215 113 80 51 25 120 172 232 54 337 279
internal_value=0 -0.00387164 -0.0133533 0.0239045 0.0119339 0.0283059 0.0299492 0.0308291 -0.0212407 3.82243e-05 0 0.00500813 0 0.00082613
internal_weight=0 671.983 445.683 447.227 226.3 353.225 338.447 327.257 264.118 94.0016 72.1075 50.8495 181.566 123.032
internal_count=4929 3296 2411 1633 885 1192 1112 1061 1583 441 345 226 828 491
is_linear=0
shrinkage=0.03


Tree=20
num_leaves=13
num_cat=0
split_feature=25 24 11 1 28 23 3 2 13 2 2 2
split_gain=236.753 156.158 55.3944 26.5588 17.828 17.6795 3.54924 2.81964 2.80615 0.178395 0.124996 0.000146248
threshold=1.0000000180025095e-35 1.0000000180025095e-35 1.0000000180025095e-35 16.500000000000004 1.0000000180025095e-35 1.0000000180025095e-35 36.175000000000004 74.875000000000014 1.0000000180025095e-35 105.97500000000001 89.975000000000009 49.82500000000001
decision_type=2 2 2 2 2 2 10 2 2 2 2 2
left_child=1 2 3 8 10 -3 -4 -6 -1 -2 11 -5
right_child=9 5 6 4 7 -7 -8 -9 -10 -11 -12 -13
leaf_value=0.030463933641693586 -0.024021528934497695 -0.01658023047280786 0.002370964142398525 0 0 0 -0.0063622091739414513 0.018703494071610541 0.0024396527628169876 0 0.0012954323245371446 -3.8578225975069429e-05
leaf_weight=345.71157993376255 150.88316878676414 93.731917604804039 31.954453736543655 14.252415314316748 28.010324507951736 93.524778559803963 51.700121194124222 112.32554787397385 55.948236897587776 24.947673842310905 47.036362767219543 68.439677476882935
leaf_count=1095 1017 572 126 68 118 450 260 382 213 160 173 295
internal_value=0 0.0131352 0.0193818 0.0222072 0.0097735 -0.00860704 0 0.0165191 0.0282842 -0.022421 0 0
internal_weight=0 942.635 755.379 671.724 270.064 187.257 83.6546 140.336 401.66 175.831 129.728 82.6921
internal_count=4929 3752 2730 2344 1036 1022 386 500 1308 1177 536 363
is_linear=0
shrinkage=0.03


Tree=21
num_leaves=14
num_cat=0
split_feature=25 24 10 1 23 1 28 2 2 2 11 2 3
split_gain=226.193 148.261 52.9612 29.5514 17.0661 11.8517 1.51542 1.35623 0.675539 0.225408 0.417586 0.0836398 0.797775
threshold=1.0000000180025095e-35 1.0000000180025095e-35 1.0000000180025095e-35 3.5000000000000004 1.0000000180025095e-35 54.500000000000007 1.0000000180025095e-35 19.475000000000005 57.050000000000004 60.225000000000009 1.0000000180025095e-35 106.825 3090.3500000000008
decision_type=2 2 2 2 2 2 2 2 2 2 2 2 10
left_child=1 2 3 7 -3 11 -5 -1 -9 10 -8 12 -4
right_child=-2 4 5 6 -6 -7 9 8 -10 -11 -12 -13 -14
leaf_value=0 -0.022132288823195467 -0.016305373815491943 0.029396047905658664 -0.0030853160316535338 0 0 0.0030363470658983267 0.017602038278947438 0 0 0 0 0.0036217388557430088
leaf_weight=6.1645809113979331 173.51075173914433 92.803873881697655 353.88172914087772 122.12076386809349 93.524778559803963 25.796257048845291 43.963402360677719 107.52448232471943 7.5224084109067908 11.486617177724836 6.255735531449317 9.1606880128383619 63.376216664910316
leaf_count=28 1177 572 1097 574 450 114 173 377 28 50 31 35 223
internal_value=0 0.0127781 0.0188487 0.00584018 -0.0084209 0.0257339 0 0.0163356 0.0169727 0.000367078 0.00174524 0.0269145 0.0271982
internal_weight=0 943.582 757.253 305.038 186.329 452.215 183.827 121.211 115.047 61.7058 50.2191 426.419 417.258
internal_count=4929 3752 2730 1261 1022 1469 828 433 405 254 204 1355 1320
is_linear=0
shrinkage=0.03


Tree=22
num_leaves=15
num_cat=0
split_feature=28 1 10 24 25 11 11 13 0 1 1 23 1 21
split_gain=215.85 104.963 45.0825 29.8983 26.655 26.0314 6.85506 4.51953 2.26286 1.547 0.997781 2.49347 0.223292 0.0645821
threshold=1.0000000180025095e-35 12.500000000000002 1.0000000180025095e-35 1.0000000180025095e-35 1.0000000180025095e-35 1.0000000180025095e-35 1.0000000180025095e-35 1.0000000180025095e-35 1.0000000180025095e-35 1.5000000000000002 58.500000000000007 1.0000000180025095e-35 53.500000000000007 1.0000000180025095e-35
decision_type=2 2 2 2 2 2 2 2 2 2 2 2 2 2
left_child=1 5 8 4 6 -1 7 -2 -3 -7 11 -4 -9 -13
right_child=3 2 10 -5 -6 9 -8 12 -10 -11 -12 13 -14 -15
leaf_value=0.017273194737652528 0.029329483138750171 -0.021481341620129293 0 0 0 0 0 0.0023914141859094342 0 -0.0046681642546738738 -0.0033634830694443301 0 0 0.0056878553197041689
leaf_weight=155.64665262401104 318.6596388220787 235.49047949910164 52.78978106379509 46.33565928041935 17.792406842112541 27.918242201209068 11.088614538311957 51.197740331292152 20.893185243010521 43.891077697277069 57.699054464697838 18.742237448692322 5.3282172679901114 51.750205084681511
leaf_count=540 1019 1463 212 236 117 113 50 187 120 232 337 74 24 205
internal_value=0 -0.00378214 -0.0128299 0.0221309 0.0246322 0.0108215 0.0263128 0.0269704 -0.0204743 0 0 0.000364074 0.00164153 0.00500089
internal_weight=0 664.821 437.365 450.402 404.067 227.456 386.274 375.186 256.384 71.8093 180.981 123.282 56.526 70.4924
internal_count=4929 3296 2411 1633 1397 885 1280 1230 1583 345 828 491 211 279
is_linear=0
shrinkage=0.03


Tree=23
num_leaves=12
num_cat=0
split_feature=25 24 11 1 23 28 26 1 2 2 2
split_gain=208.399 134.234 48.05 21.7425 16.2351 11.967 4.17268 2.256 0.365613 0.124545 0.0361406
threshold=1.0000000180025095e-35 1.0000000180025095e-35 1.0000000180025095e-35 17.500000000000004 1.0000000180025095e-35 1.0000000180025095e-35 1.0000000180025095e-35 1.5000000000000002 105.97500000000001 54.175000000000004 93.450000000000017
decision_type=2 2 2 2 2 2 2 2 2 2 2
left_child=1 2 3 -1 -3 10 -7 -4 -2 -8 -5
right_child=8 4 7 5 -6 6 9 -9 -10 -11 -12
leaf_value=0.025884371552253069 -0.023232276366794775 -0.015830794302940088 0.0010349170360119482 0 0 0 0 -0.0051974640130569459 0 0.017080340554082772 0.0007458839725839199
leaf_weight=415.67985519766808 144.9714034050703 91.193424612283707 30.320312947034836 86.578343942761421 93.308967128396034 24.920091360807419 9.8950418233871442 53.166850328445435 24.564633548259735 100.89018242061138 38.464856848120689
leaf_count=1346 1017 572 119 376 450 96 43 267 160 342 141
internal_value=0 0.0121413 0.0178939 0.0205103 -0.00805083 0.00857227 0.014201 0 -0.0216345 0.0163954 0
internal_weight=0 944.418 759.916 676.428 184.502 260.749 135.705 83.4872 169.536 110.785 125.043
internal_count=4929 3752 2730 2344 1022 998 481 386 1177 385 517
is_linear=0
shrinkage=0.03


Tree=24
num_leaves=16
num_cat=0
split_feature=25 24 10 1 23 1 28 2 2 1 1 2 2 11 1
split_gain=198.951 127.291 46.8599 26.2997 15.6736 10.6118 1.4925 1.09777 0.835315 0.441806 0.233458 0.185961 0.0705087 0.2559 0.298157
threshold=1.0000000180025095e-35 1.0000000180025095e-35 1.0000000180025095e-35 3.5000000000000004 1.0000000180025095e-35 54.500000000000007 1.0000000180025095e-35 19.475000000000005 57.050000000000004 5.5000000000000009 36.500000000000007 105.97500000000001 60.225000000000009 1.0000000180025095e-35 40.500000000000007
decision_type=2 2 2 2 2 2 2 2 2 2 2 2 2 2 2
left_child=1 2 3 7 -3 -4 9 -1 -9 -5 -11 -2 13 14 -8
right_child=11 4 5 6 -6 -7 12 8 -10 10 -12 -13 -14 -15 -16
leaf_value=0 -0.022932255243192336 -0.015566698245219134 0.024947840813756787 0 0 0 0.0031086527304402005 0.016237922524665726 0 -0.0042568817420943336 0 0 0 0 0
leaf_weight=6.1603136360645285 142.75735679268837 90.311114400625229 428.97188492119312 18.197294682264328 93.308967128396034 26.009490147233009 38.166981384158134 108.55840677022934 7.6086553931236258 87.664030134677887 15.965543478727339 24.564633548259735 11.633756250143049 6.2397437244653693 6.4002232849597922
leaf_count=28 1017 572 1355 74 450 114 144 377 28 421 79 160 50 31 29
internal_value=0 0.0117943 0.0173842 0.00509782 -0.00787404 0.0238371 0 0.0150313 0.0156018 -0.00307751 -0.00375251 -0.0213549 0 0.000946683 0.00213303
internal_weight=0 945.196 761.576 306.595 183.62 454.981 184.268 122.327 116.167 121.827 103.63 167.322 62.4407 50.8069 44.5672
internal_count=4929 3752 2730 1261 1022 1469 828 433 405 574 500 1177 254 204 173
is_linear=0
shrinkage=0.03


Tree=25
num_leaves=15
num_cat=0
split_feature=25 24 11 13 2 19 1 3 1 1 3 26 3 2
split_gain=189.896 120.684 43.8714 21.3509 15.2091 5.87343 3.68878 3.03765 1.45832 1.21697 0.767684 0.434376 0.0774127 0.0764592
threshold=1.0000000180025095e-35 1.0000000180025095e-35 1.0000000180025095e-35 1.0000000180025095e-35 94.77500000000002 1.0000000180025095e-35 61.500000000000007 36.175000000000004 42.500000000000007 47.500000000000007 5291.8250000000007 1.0000000180025095e-35 3251.5750000000003 103.20000000000002
decision_type=2 2 2 2 2 2 2 10 2 2 10 2 10 2
left_child=1 2 3 5 10 6 -1 -4 11 -7 -3 -5 -13 -2
right_child=13 4 7 8 -6 9 -8 -9 -10 -11 -12 12 -14 -15
leaf_value=0.02463415203088257 -0.023035215317088693 -0.013701984534222415 0.0017725370709636081 0 0 0.0045841933781550154 0 -0.0060074325847745665 0 0 0 0.005371838031730876 0 0
leaf_weight=456.27194786071777 135.16911029815674 120.62999016046524 32.320495963096619 37.831028953194618 54.508702456951141 76.812130331993103 6.2555006742477408 51.198457792401314 24.80488458275795 10.164910107851027 7.6153523325920096 61.833141580224037 5.4009784311056128 29.979867249727249
leaf_count=1487 980 728 126 152 253 274 28 260 108 45 41 230 20 197
internal_value=0 0.0114523 0.0168864 0.019382 -0.00770066 0.0222269 0.024333 0 0.00198132 0.00296304 -0.0131696 0.00389854 0.00512556 -0.0210791
internal_weight=0 945.648 762.893 679.375 182.754 549.504 462.527 83.519 129.87 86.977 128.245 105.065 67.2341 165.149
internal_count=4929 3752 2730 2344 1022 1834 1515 386 510 319 769 402 250 1177
is_linear=0
shrinkage=0.03


Tree=26
num_leaves=15
num_cat=0
split_feature=28 1 10 24 25 11 11 13 0 1 1 23 21 1
split_gain=183.056 89.6986 37.8685 23.4128 21.2885 20.6918 5.39806 3.59281 2.38901 1.24934 0.759557 1.83936 0.18165 0.124505
threshold=1.0000000180025095e-35 12.500000000000002 1.0000000180025095e-35 1.0000000180025095e-35 1.0000000180025095e-35 1.0000000180025095e-35 1.0000000180025095e-35 1.0000000180025095e-35 1.0000000180025095e-35 1.5000000000000002 58.500000000000007 1.0000000180025095e-35 1.0000000180025095e-35 53.500000000000007
decision_type=2 2 2 2 2 2 2 2 2 2 2 2 2 2
left_child=1 5 8 4 6 -1 7 -2 -3 -7 11 -4 -13 -9
right_child=3 2 10 -5 -6 9 -8 13 -10 -11 -12 12 -14 -15
leaf_value=0.015228534229999282 0.026447045012518287 -0.020558231146840255 0 0 0 0 0 0.0014849624167578518 0 -0.0042153832134590105 -0.0029791172110236823 0 0.0050248541281842311 0
leaf_weight=157.11588868498802 321.8044256567955 226.41289272904396 52.960446953773499 45.894168242812157 17.223974749445915 28.026395380496979 11.077727884054182 51.648506700992584 20.472173199057579 43.277615800499916 57.024281159043312 18.812155053019524 52.038573995232582 5.3596373051404944
leaf_count=540 1019 1463 212 236 117 113 50 187 120 232 337 74 205 24
internal_value=0 -0.00377505 -0.012316 0.020084 0.0222721 0.00950681 0.023741 0.0243202 -0.019549 0 0 0 0.00426865 0.000772361
internal_weight=0 656.14 427.721 453.008 407.114 228.42 389.89 378.813 246.885 71.304 180.835 123.811 70.8507 57.0081
internal_count=4929 3296 2411 1633 1397 885 1280 1230 1583 345 828 491 279 211
is_linear=0
shrinkage=0.03


Tree=27
num_leaves=18
num_cat=0
split_feature=25 24 10 1 23 3 2 2 28 2 1 1 1 1 2 1 2
split_gain=175.615 108.859 40.6531 23.6431 14.7223 10.2766 3.38792 1.72234 1.46211 0.89076 0.772008 0.367082 0.257813 0.180092 0.00323064 0.101088 0.0102524
threshold=1.0000000180025095e-35 1.0000000180025095e-35 1.0000000180025095e-35 3.5000000000000004 1.0000000180025095e-35 3090.3500000000008 95.625000000000014 19.425000000000001 1.0000000180025095e-35 57.050000000000004 30.500000000000004 5.5000000000000009 36.500000000000007 35.500000000000007 60.225000000000009 31.500000000000004 26.625000000000004
decision_type=2 2 2 2 2 10 2 2 2 2 2 2 2 2 2 2 2
left_child=1 2 3 7 -3 10 -7 -1 11 -9 -4 -5 -13 -8 15 16 -10
right_child=-2 4 5 8 -6 6 13 9 14 -11 -12 12 -14 -15 -16 -17 -18
leaf_value=0 -0.020636608707366381 -0.014900876834649272 0.025882531521077039 0 0 0 0 0.015203324847348564 0 0 0 -0.0041820914272632679 0 0.0083287414992445838 0 0 0.0013834589879824616
leaf_weight=4.8793095946311942 161.66491188108921 88.080118775367737 338.75110624730587 18.245803967118263 92.823203444480896 42.456337422132492 11.589832395315169 110.59751017391682 6.4583061486482611 7.6570837199687949 20.616070985794067 87.393714040517807 15.892030060291289 43.698518887162209 11.721916392445562 11.008495181798933 33.874580979347229
leaf_count=23 1177 572 1036 74 450 165 41 382 30 28 69 421 79 158 50 49 125
internal_value=0 0.0108808 0.0160255 0.00447259 -0.00731414 0.0220319 0.00320227 0.0139451 0 0.0145788 0.025133 -0.00304919 -0.00365422 0.00751909 0 0.000201881 0.00124745
internal_weight=0 945.744 764.841 307.729 180.903 457.112 97.7447 123.134 184.595 118.255 359.367 121.532 103.286 55.2884 63.0633 51.3414 40.3329
internal_count=4929 3752 2730 1261 1022 1469 364 433 828 410 1105 574 500 199 254 204 155
is_linear=0
shrinkage=0.03


Tree=28
num_leaves=12
num_cat=0
split_feature=25 24 11 1 23 28 2 3 13 1 2
split_gain=167.615 103.585 38.1973 18.4905 14.2173 12.4643 2.79896 2.7322 2.55617 0.581733 0.27932
threshold=1.0000000180025095e-35 1.0000000180025095e-35 1.0000000180025095e-35 16.500000000000004 1.0000000180025095e-35 1.0000000180025095e-35 74.875000000000014 36.175000000000004 1.0000000180025095e-35 55.500000000000007 103.20000000000002
decision_type=2 2 2 2 2 2 2 10 2 2 2
left_child=1 2 3 8 -3 -5 -7 -4 -1 -8 -2
right_child=10 4 7 5 -6 6 9 -9 -10 -11 -12
leaf_value=0.024854994166948589 -0.02229381986858878 -0.014649971334878773 0.0014870054609454734 0 0 0 0.015606133260304217 -0.0057510057639189047 0.00045306205538480395 0 0
leaf_weight=351.11247338354588 129.870600014925 87.25609290599823 32.492166042327881 130.26875931024551 92.823203444480896 28.719665214419365 102.10081227123737 50.838273227214813 57.117461338639259 12.818775922060011 29.546271845698357
leaf_count=1095 980 572 126 536 450 118 328 260 213 54 197
internal_value=0 0.0105973 0.0156116 0.0179334 -0.00714839 0.00725675 0.0127724 0 0.0230225 0.014715 -0.0203412
internal_weight=0 945.548 765.468 682.138 180.079 273.908 143.639 83.3304 408.23 114.92 159.417
internal_count=4929 3752 2730 2344 1022 1036 500 386 1308 382 1177
is_linear=0
shrinkage=0.03


Tree=29
num_leaves=15
num_cat=0
split_feature=28 1 10 24 25 11 11 1 0 2 1 26 23 21
split_gain=161.299 78.9153 34.0053 19.6849 18.0731 17.6217 4.59941 3.27813 2.41499 1.65367 1.08361 0.88483 0.650188 0.00194431
threshold=1.0000000180025095e-35 12.500000000000002 1.0000000180025095e-35 1.0000000180025095e-35 1.0000000180025095e-35 1.0000000180025095e-35 1.0000000180025095e-35 55.500000000000007 1.0000000180025095e-35 105.22500000000001 1.5000000000000002 1.0000000180025095e-35 1.0000000180025095e-35 1.0000000180025095e-35
decision_type=2 2 2 2 2 2 2 2 2 2 2 2 2 2
left_child=1 5 8 4 6 -1 7 9 -3 11 -7 -2 -4 -14
right_child=3 2 12 -5 -6 10 -8 -9 -10 -11 -12 -13 13 -15
leaf_value=0.013894099101464817 0.0041735359483676239 -0.019847460562057377 -0.002629484727251912 0 0 0 0 0 0 0 -0.0039379123025453239 0.026530933907346815 0 0.00012603779420851372
leaf_weight=157.77556431293488 79.952724948525429 219.73406644165516 64.633039981126785 45.637369379401207 16.825624391436577 28.134671002626419 11.084626272320746 16.118785098195076 20.195126116275787 9.0697554200887662 42.890029430389404 275.06304594874382 25.43249274790287 90.155383035540581
leaf_count=540 271 1463 287 236 117 113 50 68 120 32 232 859 112 429
internal_value=0 -0.00368703 -0.0118357 0.0187231 0.0207197 0.00861357 0.0220549 0.0225884 -0.0188402 0.0232235 0 0.0235869 0 0
internal_weight=0 648.95 420.15 453.752 408.115 228.8 391.289 380.204 239.929 364.086 71.0247 355.016 180.221 115.588
internal_count=4929 3296 2411 1633 1397 885 1280 1230 1583 1162 345 1130 828 541
is_linear=0
shrinkage=0.03


Tree=30
num_leaves=15
num_cat=0
split_feature=25 24 10 1 23 3 2 2 28 2 1 1 1 1
split_gain=155.685 94.2892 36.0434 21.0521 13.5259 8.42818 3.12135 1.51475 1.37752 0.934278 0.321413 0.276762 0.306967 0.255087
threshold=1.0000000180025095e-35 1.0000000180025095e-35 1.0000000180025095e-35 3.5000000000000004 1.0000000180025095e-35 3090.3500000000008 95.625000000000014 19.425000000000001 1.0000000180025095e-35 57.050000000000004 30.500000000000004 5.5000000000000009 36.500000000000007 35.500000000000007
decision_type=2 2 2 2 2 10 2 2 2 2 2 2 2 2
left_child=1 2 3 7 -3 10 -7 -1 11 -9 -4 -5 -13 -8
right_child=-2 4 5 8 -6 6 13 9 -10 -11 -12 12 -14 -15
leaf_value=0 -0.019918263212073458 -0.014211251186550748 0.024112629947255597 0 0 0 0 0.014136761830225379 0 0 0 -0.0040616596912487904 0 0.0078244190256304812
leaf_weight=4.8753479719161978 156.1473101079464 85.805022120475769 339.00954945385456 18.296188354492188 92.604161307215691 42.549340918660164 11.624387651681898 111.22368706762791 63.539095193147659 7.704967498779296 20.63638174533844 86.996090233325958 15.74561847746372 43.907538399100304
leaf_count=23 1177 572 1036 74 450 165 41 382 254 28 69 421 79 158
internal_value=0 0.0101161 0.0148934 0.00393076 -0.00680762 0.0205494 0.00272017 0.0129243 0 0.0135171 0.0234319 -0.00296485 -0.00348281 0.00698284
internal_weight=0 944.517 766.108 308.381 178.409 457.727 98.0813 123.804 184.577 118.929 359.646 121.038 102.742 55.5319
internal_count=4929 3752 2730 1261 1022 1469 364 433 828 410 1105 574 500 199
is_linear=0
shrinkage=0.03


Tree=31
num_leaves=14
num_cat=0
split_feature=25 24 10 1 23 1 28 2 2 2 3 1 1
split_gain=148.65 89.7878 33.759 19.9775 13.063 7.80628 1.31013 0.759367 1.55364 0.405847 0.353596 0.265276 0.294243
threshold=1.0000000180025095e-35 1.0000000180025095e-35 1.0000000180025095e-35 3.5000000000000004 1.0000000180025095e-35 54.500000000000007 1.0000000180025095e-35 57.050000000000004 19.425000000000001 103.20000000000002 4912.3250000000016 5.5000000000000009 36.500000000000007
decision_type=2 2 2 2 2 2 2 2 2 2 10 2 2
left_child=1 2 3 7 -3 10 11 8 -1 -2 -4 -5 -13
right_child=9 4 5 6 -6 -7 -8 -9 -10 -11 -12 12 -14
leaf_value=0 -0.021574427969087488 -0.013970072958903896 0.021213266290194367 0 0 0 0 0 0.013745206228339087 0 0 -0.0039686708243340339 0
leaf_weight=4.8753479719161978 124.84648606926203 85.024951711297035 421.44526335597038 18.296188354492188 92.604161307215691 26.318859979510307 63.539095193147659 7.704967498779296 111.52538505196571 29.165192097425461 10.111005157232283 86.834533959627151 15.74561847746372
leaf_count=23 980 572 1318 74 450 114 254 28 382 197 37 421 79
internal_value=0 0.00985587 0.0145163 0.00381754 -0.00665023 0.0200082 0 0.0125695 0.0131121 -0.0196302 0.0209576 -0.00289307 -0.003401
internal_weight=0 944.025 766.396 308.521 177.629 457.875 184.415 124.106 116.401 154.012 431.556 120.876 102.58
internal_count=4929 3752 2730 1261 1022 1469 828 433 405 1177 1355 574 500
is_linear=0
shrinkage=0.03


Tree=32
num_leaves=14
num_cat=0
split_feature=28 1 10 13 11 24 19 11 1 23 0 1 1
split_gain=143.493 70.9544 44.9124 18.0096 11.8463 7.93928 10.553 3.47632 1.49105 2.2968 0.423882 0.0782297 0.0139876
threshold=1.0000000180025095e-35 5.5000000000000009 1.0000000180025095e-35 1.0000000180025095e-35 1.0000000180025095e-35 1.0000000180025095e-35 1.0000000180025095e-35 1.0000000180025095e-35 54.500000000000007 1.0000000180025095e-35 1.0000000180025095e-35 53.500000000000007 58.500000000000007
decision_type=2 2 2 2 2 2 2 2 2 2 2 2 2
left_child=1 7 10 4 5 6 -2 -1 9 -4 -3 -5 -10
right_child=3 2 8 11 -6 -7 -8 -9 12 -11 -12 -13 -14
leaf_value=0.014855390937546337 0.024962901356121739 -0.017807320791219321 0 0.0009208272401441572 0 0 0 0 0 0.0056047775617283678 0 0 -0.0022659332052773341
leaf_weight=101.19046287238598 283.39320720732212 263.1677805557847 65.378017067909241 63.03437502682209 15.6434328854084 25.387194603681564 46.444445073604584 48.657965287566185 9.0613816082477552 76.539135083556175 22.273951351642609 19.82035356760025 55.764985904097557
leaf_count=325 890 1715 244 245 81 128 175 213 45 286 131 114 337
internal_value=0 -0.00363487 -0.00978003 0.0175282 0.0203428 0.0214359 0.0226554 0.0117916 0 0.00244193 -0.0171093 0 -0.00210655
internal_weight=0 642.034 492.185 453.723 370.868 355.225 329.838 149.848 206.744 141.917 285.442 82.8547 64.8264
internal_count=4929 3296 2758 1633 1274 1193 1065 538 912 530 1846 359 382
is_linear=0
shrinkage=0.03


Tree=33
num_leaves=11
num_cat=0
split_feature=25 24 11 1 23 28 2 3 13 2
split_gain=138.266 81.7906 31.0401 15.0485 12.3861 9.37128 2.5926 2.27325 2.21575 0.139735
threshold=1.0000000180025095e-35 1.0000000180025095e-35 1.0000000180025095e-35 16.500000000000004 1.0000000180025095e-35 1.0000000180025095e-35 74.875000000000014 36.175000000000004 1.0000000180025095e-35 103.20000000000002
decision_type=2 2 2 2 2 2 2 10 2 2
left_child=1 2 3 8 -3 -5 -7 -4 -1 -2
right_child=9 4 7 5 -6 6 -8 -9 -10 -11
leaf_value=0.022234543421254582 -0.021132948942694414 -0.013537541645557734 0.00099404974238460507 0 0 0 0.012653493622168032 -0.0053284779078460473 0 0
leaf_weight=351.19228841364384 121.82070694863796 83.620753154158592 32.782193168997765 129.90552379190922 92.416456401348114 29.021804943680763 115.6968734562397 50.221122831106186 57.470104321837425 29.154305472970009
leaf_count=1095 980 572 126 536 450 118 382 260 213 197
internal_value=0 0.00941067 0.0138576 0.0159505 -0.006325 0.00609891 0.0108506 0 0.0205777 -0.0192279
internal_weight=0 942.327 766.29 683.287 176.037 274.624 144.719 83.0033 408.662 150.975
internal_count=4929 3752 2730 2344 1022 1036 500 386 1308 1177
is_linear=0
shrinkage=0.03


Tree=34
num_leaves=14
num_cat=0
split_feature=25 24 26 19 23 11 1 1 6 13 2 2 1
split_gain=132.488 77.9242 30.3003 14.1084 11.9627 11.8862 7.16796 6.59689 1.70806 1.03238 0.716243 0.358542 0.0255443
threshold=1.0000000180025095e-35 1.0000000180025095e-35 1.0000000180025095e-35 1.0000000180025095e-35 1.0000000180025095e-35 1.0000000180025095e-35 2.5000000000000004 61.500000000000007 1.0000000180025095e-35 1.0000000180025095e-35 19.625000000000004 75.175000000000026 32.500000000000007
decision_type=2 2 2 2 2 2 2 2 2 2 2 2 2
left_child=1 2 6 5 -3 7 9 8 -4 10 -1 -8 -5
right_child=-2 4 3 12 -6 -7 11 -9 -10 -11 -12 -13 -14
leaf_value=0 -0.018982014546205801 -0.01330587111101501 0.023394057129692478 0.00053157308490062811 0 0 -0.0016234728443080962 0 0.00076361178561165665 0 0.010110049353714177 0 0
leaf_weight=5.4446844011545172 149.15157294273376 82.883855283260345 347.46273036301136 61.359910845756531 92.416456401348114 25.792724937200546 102.43143925070763 8.6301304847002012 62.013195276260376 6.7757770866155616 63.767398700118065 60.928652405738831 21.79135949909687
leaf_count=24 1177 572 1119 219 450 119 456 39 216 25 212 211 90
internal_value=0 0.00916998 0.0135108 0.017643 -0.00617575 0.0198606 0.00143922 0.0210258 0.021559 0.00853256 0.00942068 0 0
internal_weight=0 941.698 766.398 527.05 175.3 443.899 239.348 418.106 409.476 75.9879 69.2121 163.36 83.1513
internal_count=4929 3752 2730 1802 1022 1493 928 1374 1335 261 236 667 309
is_linear=0
shrinkage=0.03


Tree=35
num_leaves=16
num_cat=0
split_feature=28 1 10 26 1 24 11 2 1 23 1 13 15 0 1
split_gain=126.888 63.7702 40.9737 16.1138 15.5979 3.38172 2.56932 1.77406 1.05052 2.16154 0.490356 0.953006 0.398732 0.381742 0.00585003
threshold=1.0000000180025095e-35 5.5000000000000009 1.0000000180025095e-35 1.0000000180025095e-35 58.500000000000007 1.0000000180025095e-35 1.0000000180025095e-35 105.37500000000001 54.500000000000007 1.0000000180025095e-35 22.500000000000004 1.0000000180025095e-35 1.0000000180025095e-35 1.0000000180025095e-35 58.500000000000007
decision_type=2 2 2 2 2 2 2 2 2 2 2 2 2 2 2
left_child=1 6 13 10 5 7 -1 -5 9 -4 11 12 -2 -3 -10
right_child=3 2 8 4 -6 -7 -8 -9 14 -11 -12 -13 -14 -15 -16
leaf_value=0.013703476251256414 0.0049135219094048584 -0.017229741755168389 0 0.022846951973926409 0 0 0 0 0 0.0052086381964783664 0 0 0 0 -0.00191315988701836
leaf_weight=101.35592122375965 48.670206651091576 257.00969893485308 65.330366879701614 287.72406047582626 28.207130119204521 20.153526395559311 48.606275349855423 7.8026658892631522 9.047433137893675 76.611078172922134 38.590097904205322 10.399525761604307 11.89710611104965 22.073610335588455 55.151835516095161
leaf_count=325 164 1715 244 917 149 104 213 30 45 286 187 40 42 131 337
internal_value=0 -0.00351557 -0.00943916 0.016407 0.0197507 0.0215566 0.0109762 0.0224503 0 0.00204261 0 0.0022026 0.00401541 -0.0165471 -0.00179007
internal_weight=0 635.186 485.224 453.444 343.887 315.68 149.962 295.527 206.141 141.941 109.557 70.9668 60.5673 279.083 64.1993
internal_count=4929 3296 2758 1633 1200 1051 538 947 912 530 433 246 206 1846 382
is_linear=0
shrinkage=0.03


Tree=36
num_leaves=15
num_cat=0
split_feature=25 24 11 1 2 23 13 19 3 1 6 2 28 26
split_gain=123.041 71.146 27.2543 14.1691 14.926 11.3397 4.69835 4.18661 2.04352 1.89006 2.48243 0.295583 0.0300198 0.0503033
threshold=1.0000000180025095e-35 1.0000000180025095e-35 1.0000000180025095e-35 5.5000000000000009 78.875000000000014 1.0000000180025095e-35 1.0000000180025095e-35 1.0000000180025095e-35 36.175000000000004 61.500000000000007 1.0000000180025095e-35 103.20000000000002 1.0000000180025095e-35 1.0000000180025095e-35
decision_type=2 2 2 2 2 2 2 2 10 2 2 2 2 2
left_child=1 2 3 6 12 -3 -1 9 -4 10 -6 -2 -5 -14
right_child=11 5 8 4 7 -7 -8 -9 -10 -11 -12 -13 13 -15
leaf_value=0.024381833537310604 -0.02045422762827636 -0.012889502334455776 0.00084268236632829537 0 0.017179630339317273 0 0 0 -0.0050779924753620387 0 0 0 0 0.00095323646812022335
leaf_weight=214.47301729023457 117.28878780454397 81.553378820419312 32.869381174445152 98.176253631711006 164.69789753854275 92.233136311173439 26.645479664206505 55.537005424499512 49.868191376328468 9.278335899114607 33.988628268241882 28.773935124278069 21.28952245414257 59.557623773813248
leaf_count=646 980 572 126 430 523 450 94 199 260 41 116 197 82 213
internal_value=0 0.00877232 0.0129193 0.0148793 0.00849461 -0.00586517 0.0227512 0.0128494 0 0.014895 0.0154613 -0.0185548 0 0.000517599
internal_weight=0 940.168 766.381 683.644 442.525 173.787 241.118 263.502 82.7376 207.965 198.687 146.063 179.023 80.8471
internal_count=4929 3752 2730 2344 1604 1022 740 879 386 680 639 1177 725 295
is_linear=0
shrinkage=0.03


Tree=37
num_leaves=16
num_cat=0
split_feature=25 24 26 19 2 11 1 1 13 3 2 2 2 1 1
split_gain=118.093 67.9679 26.4382 12.549 11.0422 10.2507 6.19543 5.88394 0.948017 0.75522 0.625978 0.304411 0.136577 0.111706 0.00263857
threshold=1.0000000180025095e-35 1.0000000180025095e-35 1.0000000180025095e-35 1.0000000180025095e-35 94.77500000000002 1.0000000180025095e-35 2.5000000000000004 61.500000000000007 1.0000000180025095e-35 5829.3250000000007 19.625000000000004 75.175000000000026 103.20000000000002 5.5000000000000009 32.500000000000007
decision_type=2 2 2 2 2 2 2 2 2 10 2 2 2 2 2
left_child=1 2 6 5 9 7 8 -4 10 13 -1 -8 -2 -3 -5
right_child=12 4 3 14 -6 -7 11 -9 -10 -11 -12 -13 -14 -15 -16
leaf_value=0 -0.020188113622662367 0 0.020153096118780033 0.00017083707734263611 0 0 -0.0014987029368110009 0 0 0 0.0093612991528279066 0 0 -0.011388159372061214 0
leaf_weight=5.4460105448961249 115.55976739525795 4.1546308845281592 409.64096303284168 61.366811096668243 54.374117478728294 25.734973713755608 101.97509510815144 8.6250116229057294 6.7895605713129035 3.1417822688817969 63.838880881667137 60.944949820637703 28.773935124278069 111.42073337733746 21.812733456492424
leaf_count=24 980 26 1335 219 253 119 456 39 25 17 212 211 197 726 90
internal_value=0 0.00856659 0.0126217 0.0164841 -0.00572366 0.0185681 0.00117018 0.0196487 0.00785675 -0.0108279 0.00871658 0 -0.0183153 -0.0111792 0
internal_weight=0 939.266 766.175 527.18 173.091 444.001 238.994 418.266 76.0745 118.717 69.2849 162.92 144.334 115.575 83.1795
internal_count=4929 3752 2730 1802 1022 1493 928 1374 261 769 236 667 1177 752 309
is_linear=0
shrinkage=0.03


Tree=38
num_leaves=16
num_cat=0
split_feature=25 24 10 1 23 3 2 28 2 1 2 1 1 2 1
split_gain=113.11 64.3881 25.9268 14.9387 10.8069 8.3468 2.2265 1.04334 0.879835 0.819309 0.526399 0.480815 0.225889 0.218026 0.101637
threshold=1.0000000180025095e-35 1.0000000180025095e-35 1.0000000180025095e-35 3.5000000000000004 1.0000000180025095e-35 3090.3500000000008 95.625000000000014 1.0000000180025095e-35 57.050000000000004 30.500000000000004 19.475000000000005 35.500000000000007 36.500000000000007 105.22500000000001 5.5000000000000009
decision_type=2 2 2 2 2 10 2 2 2 2 2 2 2 2 2
left_child=1 2 3 8 -3 9 -7 12 10 13 -1 -8 14 -4 -5
right_child=-2 4 5 7 -6 6 11 -9 -10 -11 -12 -13 -14 -15 -16
leaf_value=0 -0.018078731789602141 -0.012490756680457857 0.020522718836944912 0 0 0 0 0 0 0 0.01144657647974128 0.0062685534309750235 0 0 -0.0034185105137162913
leaf_weight=6.1729988157749167 142.64123092591763 80.305130496621132 331.14404499530792 18.420359566807747 91.994063481688499 43.077664375305176 11.741085007786749 64.479275763034821 7.8039243817329398 20.755069494247437 111.05099351704121 44.508290216326714 15.61539877951145 6.0438224971294394 85.717613652348518
leaf_count=28 1177 572 1016 74 450 165 41 254 28 69 377 158 79 20 421
internal_value=0 0.00833738 0.0122835 0.00273453 -0.00554999 0.0170994 0.000907409 -9.01408e-05 0.0104724 0.0197192 0.0110308 0.0052506 -0.0025944 0.0203348 -0.00303567
internal_weight=0 938.83 766.531 309.261 172.299 457.27 99.327 184.233 125.028 357.943 117.224 56.2494 119.753 337.188 104.138
internal_count=4929 3752 2730 1261 1022 1469 364 828 433 1105 405 199 574 1036 495
is_linear=0
shrinkage=0.03


Tree=39
num_leaves=11
num_cat=0
split_feature=28 1 2 13 11 11 0 24 19 1
split_gain=109.593 56.0013 25.7934 14.3497 11.3512 9.1439 8.72399 4.62778 8.11219 0.622736
threshold=1.0000000180025095e-35 12.500000000000002 89.02500000000002 1.0000000180025095e-35 1.0000000180025095e-35 1.0000000180025095e-35 1.0000000180025095e-35 1.0000000180025095e-35 1.0000000180025095e-35 1.5000000000000002
decision_type=2 2 2 2 2 2 2 2 2 2
left_child=1 4 6 5 -1 7 -3 8 -2 -6
right_child=3 2 -4 -5 9 -7 -8 -9 -10 -11
leaf_value=0.010853135527311314 0.021561840859896222 -0.017588416946802087 0 0 0 0 0 0 0 -0.0030173742233441116
leaf_weight=157.72952258586884 282.40194235742092 233.37185750156641 132.80415919423103 82.753287725150585 28.466803915798664 15.4893816486001 32.531966291368008 25.127027094364166 46.411126963794231 41.558524876832962
leaf_count=540 890 1584 660 359 113 81 167 128 175 232
internal_value=0 -0.00343622 -0.0106303 0.0151223 0.00657752 0.0176194 -0.0157064 0.0185825 0.019548 0
internal_weight=0 626.463 398.708 452.183 227.755 369.429 265.904 353.94 328.813 70.0253
internal_count=4929 3296 2411 1633 885 1274 1751 1193 1065 345
is_linear=0
shrinkage=0.03


Tree=40
num_leaves=14
num_cat=0
split_feature=25 24 26 19 23 11 1 1 6 13 2 2 2
split_gain=105.248 58.7975 24.2181 10.7942 10.2507 8.98343 5.39424 5.27473 2.38908 0.893125 0.310371 0.303239 0.238617
threshold=1.0000000180025095e-35 1.0000000180025095e-35 1.0000000180025095e-35 1.0000000180025095e-35 1.0000000180025095e-35 1.0000000180025095e-35 61.500000000000007 2.5000000000000004 1.0000000180025095e-35 1.0000000180025095e-35 75.175000000000026 19.675000000000001 103.20000000000002
decision_type=2 2 2 2 2 2 2 2 2 2 2 2 2
left_child=1 2 7 5 -3 6 8 9 -4 11 -9 -1 -2
right_child=12 4 3 -5 -6 -7 -8 10 -10 -11 -12 -13 -14
leaf_value=0 -0.019535865253119063 -0.01209065453234183 0.02055253537788284 0 0 0 0 -0.0015149606865868443 0 0 0 0.0085184892145259896 0
leaf_weight=7.0127985328435889 111.38469970971346 79.052644163370132 347.15308536589146 83.127459093928337 91.791218906641006 25.717471227049828 8.6544417142868024 101.70843805372715 62.015342965722084 6.814181610941886 60.920344620943069 62.353340953588486 28.441717639565468
leaf_count=30 980 572 1119 309 450 119 39 456 216 25 211 206 197
internal_value=0 0.007985 0.0117605 0.0154377 -0.00524709 0.0173787 0.0183909 0.000766251 0.0188775 0.00713707 0 0.00798852 -0.0176746
internal_weight=0 936.321 765.477 526.668 170.844 443.54 417.823 238.809 409.168 76.1803 162.629 69.3661 139.826
internal_count=4929 3752 2730 1802 1022 1493 1374 928 1335 261 667 236 1177
is_linear=0
shrinkage=0.03


Tree=41
num_leaves=11
num_cat=0
split_feature=25 10 1 1 28 28 1 13 2 0
split_gain=100.936 56.4536 26.2214 18.4537 8.51282 4.49427 1.28934 0.713885 0.0941612 0.0620139
threshold=1.0000000180025095e-35 1.0000000180025095e-35 5.5000000000000009 17.500000000000004 1.0000000180025095e-35 1.0000000180025095e-35 2.5000000000000004 1.0000000180025095e-35 103.20000000000002 1.0000000180025095e-35
decision_type=2 2 2 2 2 2 2 2 2 2
left_child=1 2 6 -3 -5 9 -1 -6 -2 -4
right_child=8 3 5 4 7 -7 -8 -9 -10 -11
leaf_value=0.010322539985102781 -0.019277771525190564 0.020683931992923416 -0.0091752633154554303 0 0.010761293192504989 0 0 0 0 0
leaf_weight=106.15287937223911 109.7818156555295 257.50447145104408 163.14424365758896 129.61776356399059 108.70500838756561 73.481689587235451 48.624092668294907 33.471335127949715 28.441717639565468 15.037707999348639
leaf_count=370 980 789 957 538 378 324 187 132 197 77
internal_value=0 0.00778391 0 0.0140683 0.00475616 -0.00645443 0.00838279 0.00937778 -0.017444 -0.00880432
internal_weight=0 935.739 406.441 529.299 271.794 251.664 154.777 142.176 138.224 178.182
internal_count=4929 3752 1915 1837 1048 1358 557 510 1177 1034
is_linear=0
shrinkage=0.03


Tree=42
num_leaves=13
num_cat=0
split_feature=28 1 2 26 1 11 0 2 24 1 1 15
split_gain=97.0842 49.9134 23.8241 13.6139 11.9408 10.0432 8.04501 1.41485 1.93771 0.544734 0.0644136 0.550611
threshold=1.0000000180025095e-35 12.500000000000002 89.02500000000002 1.0000000180025095e-35 58.500000000000007 1.0000000180025095e-35 1.0000000180025095e-35 106.47500000000001 1.0000000180025095e-35 1.5000000000000002 22.500000000000004 1.0000000180025095e-35
decision_type=2 2 2 2 2 2 2 2 2 2 2 2
left_child=1 5 6 10 7 -1 -3 8 -5 -7 11 -2
right_child=3 2 -4 4 -6 9 -8 -9 -10 -11 -12 -13
leaf_value=0.010072207983973609 0.0026969035439784413 -0.017002439493148475 0 0.019754311521254841 0 0 0 0 0 -0.0028283855792280467 0 0
leaf_weight=157.59582734107971 56.103446766734123 227.8552530631423 132.48443438112736 289.38942955434322 28.029688619077206 28.580617837607861 32.375508040189743 7.1280309557914725 17.536512702703476 41.284419573843479 38.237901799380779 14.705164387822149
leaf_count=540 192 1584 660 928 149 113 167 30 93 232 187 54
internal_value=0 -0.00331253 -0.0102035 0.014179 0.017188 0.00602336 -0.0151607 0.018772 0.0190779 0 0 0.000798999
internal_weight=0 620.176 392.715 451.13 342.084 227.461 260.231 314.054 306.926 69.865 109.047 70.8086
internal_count=4929 3296 2411 1633 1200 885 1751 1051 1021 345 433 246
is_linear=0
shrinkage=0.03


Tree=43
num_leaves=13
num_cat=0
split_feature=25 24 26 19 23 11 1 1 6 13 2 2
split_gain=94.3751 51.9022 21.2983 9.85302 9.5743 7.99357 4.90383 4.51614 2.03576 0.860395 0.509647 0.260273
threshold=1.0000000180025095e-35 1.0000000180025095e-35 1.0000000180025095e-35 1.0000000180025095e-35 1.0000000180025095e-35 1.0000000180025095e-35 61.500000000000007 2.5000000000000004 1.0000000180025095e-35 1.0000000180025095e-35 19.625000000000004 80.675000000000026
decision_type=2 2 2 2 2 2 2 2 2 2 2 2
left_child=1 2 7 5 -3 6 8 9 -4 10 -1 -9
right_child=-2 4 3 -5 -6 -7 -8 11 -10 -11 -12 -13
leaf_value=0 -0.017085753776359666 -0.011615515271964923 0.019317460567254693 0 0 0 0 -0.0013242059652841562 0 0 0.0080022532620032429 0
leaf_weight=5.4732055515050879 135.73605994880199 77.574946358799934 346.27946230769157 83.080597370862961 91.581349700689316 25.71622422337532 8.6591774523258191 113.58593136072159 61.900407433509827 6.8389413356780997 63.973946303129196 48.535872623324394
leaf_count=24 1177 572 1119 309 450 119 39 499 216 25 212 168
internal_value=0 0.00746528 0.0110241 0.0144782 -0.00490341 0.0163229 0.0172798 0.000555712 0.0177465 0.00656062 0.00741551 0
internal_weight=0 933.2 764.044 525.636 169.156 442.555 416.839 238.408 408.18 76.2861 69.4472 162.122
internal_count=4929 3752 2730 1802 1022 1493 1374 928 1335 261 236 667
is_linear=0
shrinkage=0.03


Tree=44
num_leaves=11
num_cat=0
split_feature=25 10 1 1 28 28 2 13 1 2
split_gain=90.1928 50.497 23.527 16.2567 7.30792 3.6115 1.21823 0.707914 0.479024 0.189026
threshold=1.0000000180025095e-35 1.0000000180025095e-35 5.5000000000000009 17.500000000000004 1.0000000180025095e-35 1.0000000180025095e-35 55.175000000000004 1.0000000180025095e-35 3.5000000000000004 103.20000000000002
decision_type=2 2 2 2 2 2 2 2 2 2
left_child=1 2 6 -3 -5 -4 8 -6 -1 -2
right_child=9 3 5 4 7 -7 -8 -9 -10 -11
leaf_value=0.0094663631985096412 -0.018645472459046457 0.019510810207170257 -0.0083761018645485685 0 0.0099231464126268449 0 0 0 0 0
leaf_weight=116.17585153877735 105.91729109734297 255.96119639277458 175.97129632532597 129.51116812229156 108.77712206542492 73.754693433642387 17.855125516653061 33.498142033815384 21.00311453640461 28.124247610569
leaf_count=408 980 789 1034 538 378 324 64 132 85 197
internal_value=0 0.00727691 0 0.0132308 0.00432826 -0.00623891 0.00780966 0.00861487 0.00865417 -0.0168249
internal_weight=0 932.508 404.76 527.748 271.786 249.726 155.034 142.275 137.179 134.042
internal_count=4929 3752 1915 1837 1048 1358 557 510 493 1177
is_linear=0
shrinkage=0.03


Tree=45
num_leaves=12
num_cat=0
split_feature=25 10 1 1 28 28 1 13 2 28 0
split_gain=86.6158 47.9733 22.3805 14.9905 6.99625 3.43207 1.18879 0.612918 0.0651365 1.36797 0.00245282
threshold=1.0000000180025095e-35 1.0000000180025095e-35 5.5000000000000009 17.500000000000004 1.0000000180025095e-35 1.0000000180025095e-35 2.5000000000000004 1.0000000180025095e-35 105.97500000000001 1.0000000180025095e-35 1.0000000180025095e-35
decision_type=2 2 2 2 2 2 2 2 2 2 2
left_child=1 2 6 -3 -5 10 -1 -6 9 -2 -4
right_child=8 3 5 4 7 -7 -8 -9 -10 -11 -12
leaf_value=0.0094195658723220787 -0.019122178661470948 0.019012222017107727 -0.0085196897468258464 0 0.0096636033043794884 0 0 0 0 0 0
leaf_weight=106.52615946531296 98.534437097609043 255.32759213447571 160.16110031306744 129.51116812229156 108.88319428265095 73.754693433642387 48.671298310160637 33.498142033815384 23.022476643323898 11.001372851431368 14.989695549011229
leaf_count=370 929 789 957 538 378 324 187 132 160 88 77
internal_value=0 0.00710629 0 0.0129109 0.00421569 -0.00609389 0.00761393 0.00840972 -0.0166028 -0.0180305 -0.00818526
internal_weight=0 931.323 404.103 527.22 271.893 248.905 155.197 142.381 132.558 109.536 175.151
internal_count=4929 3752 1915 1837 1048 1358 557 510 1177 1017 1034
is_linear=0
shrinkage=0.03


Tree=46
num_leaves=12
num_cat=0
split_feature=25 24 26 23 19 11 1 1 13 2 2
split_gain=83.235 46.3015 19.801 8.98785 8.94439 7.21405 4.5369 3.63505 0.796554 0.480258 0.240698
threshold=1.0000000180025095e-35 1.0000000180025095e-35 1.0000000180025095e-35 1.0000000180025095e-35 1.0000000180025095e-35 1.0000000180025095e-35 61.500000000000007 2.5000000000000004 1.0000000180025095e-35 19.625000000000004 80.675000000000026
decision_type=2 2 2 2 2 2 2 2 2 2 2
left_child=1 2 7 -3 5 6 -4 8 9 -1 -9
right_child=-2 3 4 -5 -6 -7 -8 10 -10 -11 -12
leaf_value=0 -0.016387876356193962 -0.011246518083644668 0.016752453911180309 0 0 0 0 -0.0012756573949654643 0 0.0072625567008758633 0
leaf_weight=5.5151478201150885 131.13491789251566 76.443655349314213 406.73428584635258 91.538131922483444 82.972418129444122 25.721562907099724 8.6783019602298719 113.12117993831635 6.8609807044267646 64.03403040766716 48.51314452290535
leaf_count=24 1177 572 1335 450 309 119 39 499 25 212 168
internal_value=0 0.00694015 0.0103215 -0.00467561 0.0136335 0.0153875 0.0162995 0.000212755 0.00583564 0.00668353 0
internal_weight=0 930.133 762.151 167.982 524.107 441.134 415.413 238.044 76.4102 69.5492 161.634
internal_count=4929 3752 2730 1022 1802 1493 1374 928 261 236 667
is_linear=0
shrinkage=0.03


Tree=47
num_leaves=13
num_cat=0
split_feature=28 1 10 13 11 24 19 2 0 23 1 1
split_gain=80.2456 42.1004 26.8211 11.4776 7.15112 3.14855 6.14249 1.3009 0.462408 0.139849 2.10191 0.910948
threshold=1.0000000180025095e-35 5.5000000000000009 1.0000000180025095e-35 1.0000000180025095e-35 1.0000000180025095e-35 1.0000000180025095e-35 1.0000000180025095e-35 19.275000000000002 1.0000000180025095e-35 1.0000000180025095e-35 58.500000000000007 12.500000000000002
decision_type=2 2 2 2 2 2 2 2 2 2 2 2
left_child=1 7 8 4 5 6 -2 -1 -3 11 -11 -4
right_child=3 2 9 -5 -6 -7 -8 -9 -10 10 -12 -13
leaf_value=0 0.018435559563933317 -0.015019127733019279 0 0 0 0 0 0.0086376612570584002 0 0.0043348282490478108 0 -0.0032877334277341031
leaf_weight=3.5712447091937056 279.17875761538744 235.10004115849733 14.793950617313383 82.659904569387436 15.445148684084414 25.28709876537323 46.316778808832169 146.32637848705053 21.18564186245203 83.099132463335991 42.732369720935822 63.274039462208748
leaf_count=18 890 1715 47 359 81 128 175 520 131 316 262 287
internal_value=0 -0.00317137 -0.00828856 0.0127776 0.0149985 0.0158645 0.0166825 0.00813324 -0.0143795 0 0.000559139 -0.000904728
internal_weight=0 610.083 460.185 448.888 366.228 350.783 325.496 149.898 256.286 203.899 125.832 78.068
internal_count=4929 3296 2758 1633 1274 1193 1065 538 1846 912 578 334
is_linear=0
shrinkage=0.03


Tree=48
num_leaves=13
num_cat=0
split_feature=25 1 10 11 21 13 6 28 3 2 2 2
split_gain=77.3685 42.8361 31.1947 9.06495 8.34979 4.88205 3.26677 2.6631 0.200034 0.374458 0.197582 0.00355927
threshold=1.0000000180025095e-35 5.5000000000000009 1.0000000180025095e-35 1.0000000180025095e-35 1.0000000180025095e-35 1.0000000180025095e-35 1.0000000180025095e-35 1.0000000180025095e-35 3090.3500000000008 79.02500000000002 103.20000000000002 79.425000000000026
decision_type=2 2 2 2 2 2 2 2 10 2 2 2
left_child=1 3 7 5 8 -1 -6 11 9 -4 -2 -3
right_child=10 2 4 -5 6 -7 -8 -9 -10 -11 -12 -13
leaf_value=0.019925511804042645 -0.017794541314723807 -0.0078194046784040433 0 0 0.012219183332365382 0 0 0 0 0.0024302196210746305 0 0
leaf_weight=211.74702316522598 100.92795271426439 166.25885580480099 51.769058108329773 54.177328482270241 182.81394146382809 26.979820996522903 45.994641736149788 73.916511103510857 39.985833942890167 67.545942023396492 27.784073948860168 6.5552412569522849
leaf_count=651 980 997 177 229 658 94 179 324 181 225 197 37
internal_value=0 0.00662881 0.00106313 0.0159353 0.00697011 0.0184022 0.0104829 -0.00580505 0 0.00113678 -0.0160091 -0.00768425
internal_weight=0 927.744 634.84 292.904 388.109 238.727 228.809 246.731 159.301 119.315 128.712 172.814
internal_count=4929 3752 2778 974 1420 745 837 1358 583 402 1177 1034
is_linear=0
shrinkage=0.03


Tree=49
num_leaves=15
num_cat=0
split_feature=25 24 26 23 1 11 1 13 2 2 19 2 28 2
split_gain=74.2763 41.1993 18.2536 8.28732 7.91315 6.37406 2.87439 0.698439 0.416241 0.221115 0.455043 0.216601 0.104216 1.33649
threshold=1.0000000180025095e-35 1.0000000180025095e-35 1.0000000180025095e-35 1.0000000180025095e-35 32.500000000000007 1.0000000180025095e-35 2.5000000000000004 1.0000000180025095e-35 19.625000000000004 96.125000000000014 1.0000000180025095e-35 80.675000000000026 1.0000000180025095e-35 105.97500000000001
decision_type=2 2 2 2 2 2 2 2 2 2 2 2 2 2
left_child=1 2 6 -3 5 -4 7 8 -1 -6 -11 -8 13 -2
right_child=12 3 4 -5 9 -7 11 -9 -10 10 -12 -13 -14 -15
leaf_value=0 -0.018288481438397113 -0.010806193032749416 0.015756420291071722 0 0 0 -0.0012124274023817801 0 0.0065376256416465692 0.0034935482312092743 0 0 0 0
leaf_weight=5.5255767256021491 93.77794848382473 75.109407365322113 392.12599745392799 91.52810001373291 63.452530100941658 24.518245846033096 112.61474606394768 6.8682196587324134 63.999059915542603 29.860559403896332 12.651893496513365 48.512773886322975 14.907111316919325 18.654990836977959
leaf_count=24 929 572 1286 450 254 113 499 25 212 99 50 168 117 131
internal_value=0 0.00646718 0.00967534 -0.00442089 0.01284 0.0148723 0 0.0051805 0.00599317 0 0.00178421 0 -0.015795 -0.0166815
internal_weight=0 926.767 760.13 166.638 522.609 416.644 237.52 76.3929 69.5246 105.965 42.5125 161.128 127.34 112.433
internal_count=4929 3752 2730 1022 1802 1399 928 261 236 403 149 667 1177 1060
is_linear=0
shrinkage=0.03


Tree=50
num_leaves=12
num_cat=0
split_feature=28 1 2 26 1 0 2 2 24 1 1
split_gain=71.7016 37.7839 22.1157 11.1557 9.17075 7.8775 3.6789 1.07144 0.783482 0.357663 0.184682
threshold=1.0000000180025095e-35 7.5000000000000009 89.02500000000002 1.0000000180025095e-35 58.500000000000007 1.0000000180025095e-35 29.825000000000006 106.47500000000001 1.0000000180025095e-35 58.500000000000007 9.5000000000000018
decision_type=2 2 2 2 2 2 2 2 2 2 2
left_child=1 6 5 -2 7 10 -1 8 -5 -4 -3
right_child=3 2 9 4 -6 -7 -8 -9 -10 -11 -12
leaf_value=0 0 0 0.0017431103985658454 0.016885380673917118 0 0 0.0093634436361520815 0 0 0 -0.015071073848833423
leaf_weight=64.47548358887434 108.57988082617521 15.800898432731627 85.941699035465717 286.21142419427633 27.978283822536469 36.278176017105579 109.98384617269039 7.1637900024652472 17.51977214217186 51.870430074632168 240.13084377348423
leaf_count=287 433 77 340 928 149 183 364 30 93 340 1705
internal_value=0 -0.00310098 -0.00842269 0.0120026 0.0146842 -0.0128844 0.00644809 0.0160873 0.0163557 0 -0.0146126
internal_weight=0 604.481 430.022 447.453 338.873 292.21 174.459 310.895 303.731 137.812 255.932
internal_count=4929 3296 2645 1633 1200 1965 651 1051 1021 680 1782
is_linear=0
shrinkage=0.03


Tree=51
num_leaves=14
num_cat=0
split_feature=25 1 10 21 11 13 6 28 3 28 3 23 2
split_gain=69.5222 38.8454 27.5909 8.02884 7.79224 4.68133 2.96713 1.96223 0.0774836 0.134754 0.0718466 0.0657447 0.226046
threshold=1.0000000180025095e-35 5.5000000000000009 1.0000000180025095e-35 1.0000000180025095e-35 1.0000000180025095e-35 1.0000000180025095e-35 1.0000000180025095e-35 1.0000000180025095e-35 3090.3500000000008 1.0000000180025095e-35 572.95000000000016 1.0000000180025095e-35 54.925000000000004
decision_type=2 2 2 2 2 2 2 2 10 2 10 2 2
left_child=1 4 7 8 5 -1 -5 11 9 -4 -11 12 -3
right_child=-2 2 3 6 -6 -7 -8 -9 -10 10 -12 -13 -14
leaf_value=0.018856598439989072 -0.015470214927149518 -0.0093641400772089198 0 0.011521281376799621 0 0 0 0 0 0 0.0018151737166698194 0 0
leaf_weight=210.47011807560921 125.25787415355444 97.521374821662903 53.956079363822937 182.81744223833084 54.203031331300735 27.033278077840805 45.96752268075943 74.131540730595589 39.911002621054649 7.4338755756616584 57.598591819405556 43.022196069359779 30.200348593294621
leaf_count=651 1177 620 191 658 229 94 179 324 181 25 186 229 185
internal_value=0 0.00619437 0.000848918 0.00646233 0.0150628 0.0173747 0.00987319 -0.00558988 0 0.000708332 0.00149879 -0.00725597 -0.00826941
internal_weight=0 924.266 632.56 387.685 291.706 237.503 228.785 244.875 158.9 118.989 65.0325 170.744 127.722
internal_count=4929 3752 2778 1420 974 745 837 1358 583 402 211 1034 805
is_linear=0
shrinkage=0.03


Tree=52
num_leaves=15
num_cat=0
split_feature=25 10 1 3 24 28 1 13 6 3 1 2 2 2
split_gain=66.4176 37.3081 16.1113 12.712 4.53906 1.87448 1.45086 0.478106 0.362415 0.311059 0.235591 0.209444 0.0774327 0.00956319
threshold=1.0000000180025095e-35 1.0000000180025095e-35 5.5000000000000009 3090.3500000000008 1.0000000180025095e-35 1.0000000180025095e-35 2.5000000000000004 1.0000000180025095e-35 1.0000000180025095e-35 4311.4250000000011 59.500000000000007 103.20000000000002 55.175000000000004 79.425000000000026
decision_type=2 2 2 10 2 2 2 2 2 10 2 2 2 2
left_child=1 2 6 4 7 13 12 -3 9 -5 -11 -2 -1 -4
right_child=11 3 5 8 -6 -7 -8 -9 -10 10 -12 -13 -14 -15
leaf_value=0.0081642617829906731 -0.016974199165766746 0.016098333606074065 -0.0072611474114279871 0 0 0 0 0 0 0.0034423424719185166 0 0 0 0
leaf_weight=98.305432632565498 96.344783022999763 303.61350031197071 163.70263343304396 44.251617431640625 8.7437426596879941 74.131540730595589 48.810406997799873 46.026233583688736 38.376776650547981 49.044505745172501 33.494134292006493 27.45696697384119 8.3884467482566816 6.5080953165888777
leaf_count=341 980 954 997 165 48 324 187 151 167 194 158 197 29 37
internal_value=0 0.00603265 0 0.0111776 0.0144814 -0.0054978 0.00609051 0.0150241 0 0.00149065 0.0024313 -0.015225 0.00785442 -0.00713267
internal_weight=0 923.397 399.847 523.551 358.383 244.342 155.504 349.64 165.167 126.79 82.5386 123.802 106.694 170.211
internal_count=4929 3752 1915 1837 1153 1358 557 1105 684 517 352 1177 370 1034
is_linear=0
shrinkage=0.03


Tree=53
num_leaves=13
num_cat=0
split_feature=28 1 2 26 1 0 11 2 11 24 1 1
split_gain=63.8722 34.2394 18.4993 10.4632 8.2302 7.4 6.5662 0.986804 0.597997 0.832779 0.306693 0.00496142
threshold=1.0000000180025095e-35 12.500000000000002 93.450000000000017 1.0000000180025095e-35 58.500000000000007 1.0000000180025095e-35 1.0000000180025095e-35 106.47500000000001 1.0000000180025095e-35 1.0000000180025095e-35 1.5000000000000002 10.500000000000002
decision_type=2 2 2 2 2 2 2 2 2 2 2 2
left_child=1 6 5 -2 7 -3 -1 8 9 -5 -8 -12
right_child=3 2 -4 4 -6 -7 10 -9 -10 -11 11 -13
leaf_value=0.0077793186992260082 0 -0.01479296842901183 0 0.016193047702141909 0 0 0 0 0 0 -0.0022535265898799848 0
leaf_weight=155.9895089790225 108.37502862513065 230.90919945389032 105.51843182742596 278.92095130681992 27.907542124390602 37.226385191082954 28.93346530944109 7.1785197705030432 6.7575340196490279 16.657373115420341 35.232010595500469 5.0120463222265235
leaf_count=540 433 1691 525 901 149 195 113 30 33 87 199 33
internal_value=0 -0.00298749 -0.00895921 0.0112909 0.0138739 -0.0129401 0.00439744 0.0152075 0.0154652 0.0156844 0 -0.00214051
internal_weight=0 598.821 373.654 445.797 337.422 268.136 225.167 309.514 302.336 295.578 69.1775 40.2441
internal_count=4929 3296 2411 1633 1200 1886 885 1051 1021 988 345 232
is_linear=0
shrinkage=0.03


Tree=54
num_leaves=15
num_cat=0
split_feature=25 1 2 11 23 6 28 13 2 0 3 28 2 1
split_gain=62.2213 35.1541 24.3421 6.87336 6.58298 6.04556 4.41075 4.29501 1.66066 1.14378 0.442936 0.130087 1.19831 0.128364
threshold=1.0000000180025095e-35 5.5000000000000009 79.02500000000002 1.0000000180025095e-35 1.0000000180025095e-35 1.0000000180025095e-35 1.0000000180025095e-35 1.0000000180025095e-35 81.375000000000014 1.0000000180025095e-35 4263.7250000000013 1.0000000180025095e-35 105.97500000000001 59.500000000000007
decision_type=2 2 2 2 2 2 2 2 2 2 10 2 2 2
left_child=1 3 6 7 -4 8 9 -1 -6 10 -3 12 -2 -10
right_child=11 2 4 -5 5 -7 -8 -9 13 -11 -12 -13 -14 -15
leaf_value=0.017857861973351454 -0.017336187816031277 -0.0078633323821131317 0 0 0 0 0 0 0.012581622281038094 0 0 0 0 0
leaf_weight=209.02993614971638 88.612265013158321 164.89571865648031 96.379964828491211 54.291661217808723 5.8484872579574576 44.358051776885986 102.49401223659515 27.06879548728466 164.0665974766016 21.421848952770233 3.259643390774726 14.678127460181711 18.462776750326157 27.301100388169289
leaf_count=651 929 979 379 229 25 180 413 94 563 98 20 117 131 121
internal_value=0 0.00580008 0.000665959 0.0142453 0.00671933 0.00918887 -0.00439747 0.0164348 0.0112573 -0.00690914 -0.00765781 -0.0148944 -0.0157604 0.0117177
internal_weight=0 920.416 630.025 290.39 337.954 241.574 292.071 236.099 197.216 189.577 168.155 121.753 107.075 191.368
internal_count=4929 3752 2778 974 1268 889 1510 745 709 1097 999 1177 1060 684
is_linear=0
shrinkage=0.03


Tree=55
num_leaves=14
num_cat=0
split_feature=25 1 2 11 23 6 28 13 2 0 3 28 1
split_gain=59.8194 33.4285 23.0976 6.38031 6.24372 5.76016 4.21698 3.97792 1.59682 1.08788 0.42766 0.0776501 0.010504
threshold=1.0000000180025095e-35 5.5000000000000009 79.02500000000002 1.0000000180025095e-35 1.0000000180025095e-35 1.0000000180025095e-35 1.0000000180025095e-35 1.0000000180025095e-35 81.375000000000014 1.0000000180025095e-35 4263.7250000000013 1.0000000180025095e-35 59.500000000000007
decision_type=2 2 2 2 2 2 2 2 2 2 10 2 2
left_child=1 3 6 7 -4 8 9 -1 -6 10 -3 -2 -10
right_child=11 2 4 -5 5 -7 -8 -9 12 -11 -12 -13 -14
leaf_value=0.017414485368190236 -0.015547175424972505 -0.0076813962585681296 0 0 0 0 0 0 0.012239142227279102 0 0 0 0
leaf_weight=208.43953195214272 105.87374644726515 164.22134361416101 96.379964828491211 54.291661217808723 5.8484872579574576 44.358051776885986 102.49401223659515 27.06879548728466 164.15607963502407 21.421848952770233 3.259643390774726 14.678127460181711 27.301100388169289
leaf_count=651 1060 979 379 229 25 180 413 94 563 98 20 117 121
internal_value=0 0.00566365 0.000630951 0.0139115 0.00654465 0.008949 -0.00428233 0.0160351 0.0109676 -0.00674562 -0.0074783 -0.0146961 0.0114198
internal_weight=0 919.241 629.441 289.8 338.044 241.664 291.397 235.508 197.306 188.903 167.481 120.552 191.457
internal_count=4929 3752 2778 974 1268 889 1510 745 709 1097 999 1177 684
is_linear=0
shrinkage=0.03


Tree=56
num_leaves=14
num_cat=0
split_feature=25 24 26 19 2 11 3 1 1 2 1 2 2
split_gain=57.3694 32.3175 14.9003 8.18348 7.0396 4.78402 3.95082 1.71086 0.483643 0.238171 0.18302 0.166698 0.145135
threshold=1.0000000180025095e-35 1.0000000180025095e-35 1.0000000180025095e-35 1.0000000180025095e-35 99.875000000000014 1.0000000180025095e-35 3251.5750000000003 2.5000000000000004 40.500000000000007 19.625000000000004 66.500000000000014 103.20000000000002 80.675000000000026
decision_type=2 2 2 2 2 2 10 2 2 2 2 2 2
left_child=1 2 7 5 10 6 8 9 -4 -1 -3 -2 -9
right_child=11 4 3 -5 -6 -7 -8 12 -10 -11 -12 -13 -14
leaf_value=0 -0.016178581157918395 -0.0084137298994134066 0.015254792120983558 0 0 0 0 -0.00099695989872185253 0 0.0043996395696465152 0 0 0
leaf_weight=5.5424030125141135 92.101541630923748 112.65147645771503 340.80882288515568 82.799886405467987 42.318964526057243 25.500678509473801 57.83538019657135 111.41892257332802 10.914388895034788 70.620618239045143 9.1647677645087224 27.188274905085564 48.478370383381844
leaf_count=24 980 774 1117 309 190 119 209 499 48 237 58 197 168
internal_value=0 0.00553089 0.00842178 0.0112689 -0.0039618 0.0128949 0.0136445 0 0.0149902 0.00400151 -0.00806564 -0.0144768 0
internal_weight=0 918.055 753.919 517.859 164.135 435.059 409.559 236.06 351.723 76.163 121.816 119.29 159.897
internal_count=4929 3752 2730 1802 1022 1493 1374 928 1165 261 832 1177 667
is_linear=0
shrinkage=0.03


Tree=57
num_leaves=14
num_cat=0
split_feature=25 10 1 1 28 11 2 13 2 1 2 28 2
split_gain=55.0954 31.3523 12.9941 11.0736 4.65105 1.9606 1.0515 0.623455 0.384003 0.982818 0.268218 0.0916475 1.18843
threshold=1.0000000180025095e-35 1.0000000180025095e-35 3.5000000000000004 17.500000000000004 1.0000000180025095e-35 1.0000000180025095e-35 57.050000000000004 1.0000000180025095e-35 43.175000000000004 22.500000000000004 82.375000000000014 1.0000000180025095e-35 105.97500000000001
decision_type=2 2 2 2 2 2 2 2 2 2 2 2 2
left_child=1 2 6 -3 -5 8 -1 -6 -4 -10 -11 12 -2
right_child=11 3 5 4 7 -7 -8 -9 9 10 -12 -13 -14
leaf_value=0.0068134495663533263 -0.016685002176220071 0.015399266888689568 0 0 0.0071999101427131264 -0.0095418407013105281 0 0 0 -0.0039098593054259544 0 0 0
leaf_weight=120.22663624584675 85.280916303396225 247.92376525700092 32.839320011436939 130.02304738759995 108.60863167047501 66.722940273582935 8.3264066427946073 33.641603767871857 88.373339906334877 76.260569468140602 3.968906342983245 14.569440320134161 18.268342226743698
leaf_count=421 929 789 155 538 378 457 30 132 379 452 21 117 131
internal_value=0 0.00539514 0 0.010135 0.00256294 -0.0046127 0.00611969 0.00613449 0 -0.00135368 -0.00350332 -0.014278 -0.0151185
internal_weight=0 916.915 396.718 520.197 272.273 268.165 128.553 142.25 201.442 168.603 80.2295 118.119 103.549
internal_count=4929 3752 1915 1837 1048 1464 451 510 1007 852 473 1177 1060
is_linear=0
shrinkage=0.03


Tree=58
num_leaves=12
num_cat=0
split_feature=28 1 2 26 1 0 11 2 11 1 1
split_gain=53.148 28.445 16.3344 9.52315 6.99955 6.68329 5.10062 0.912067 0.358573 0.213909 0.0202191
threshold=1.0000000180025095e-35 12.500000000000002 93.450000000000017 1.0000000180025095e-35 58.500000000000007 1.0000000180025095e-35 1.0000000180025095e-35 106.47500000000001 1.0000000180025095e-35 1.5000000000000002 10.500000000000002
decision_type=2 2 2 2 2 2 2 2 2 2 2
left_child=1 6 5 -2 7 -3 -1 8 -5 -8 -11
right_child=3 2 -4 4 -6 -7 9 -9 -10 10 -12
leaf_value=0.006728979398760819 0 -0.014020408184569181 0 0.014335045926112754 0 0 0 0 0 -0.0019598634517796259 0
leaf_weight=155.13533186167479 108.07781407237053 223.83953636884689 105.14729914069176 293.01030506938696 27.885458312928677 36.887179769575596 28.984298661351204 7.2195275425910941 6.7308887988328925 34.858558006584644 4.9070337116718283
leaf_count=540 433 1691 525 988 149 195 113 30 33 199 33
internal_value=0 -0.00285066 -0.00839828 0.0102153 0.0126606 -0.0122195 0.00370035 0.0139007 0.0141477 0 -0.00179478
internal_weight=0 589.759 365.874 442.924 334.846 260.727 223.885 306.961 299.741 68.7499 39.7656
internal_count=4929 3296 2411 1633 1200 1886 885 1051 1021 345 232
is_linear=0
shrinkage=0.03


Tree=59
num_leaves=12
num_cat=0
split_feature=25 1 2 23 11 6 13 28 2 0 3
split_gain=51.5848 29.6114 20.0964 5.91979 5.30824 5.29301 3.8602 3.31731 1.18338 0.911663 0.421695
threshold=1.0000000180025095e-35 5.5000000000000009 79.02500000000002 1.0000000180025095e-35 1.0000000180025095e-35 1.0000000180025095e-35 1.0000000180025095e-35 1.0000000180025095e-35 81.800000000000011 1.0000000180025095e-35 4263.7250000000013
decision_type=2 2 2 2 2 2 2 2 2 2 10
left_child=1 4 7 -4 6 8 -1 9 -5 10 -3
right_child=-2 2 3 5 -6 -7 -8 -9 -10 -11 -12
leaf_value=0.01625238194193189 -0.013967572221262808 -0.0072494993500004023 0 0 0 0 0 0 0.010667741743549702 0 0
leaf_weight=206.4290551841259 116.28657614439726 162.04984001070261 96.057648688554764 6.3409628123044959 54.348723039031029 44.29938530921936 27.115310743451118 102.39679670333862 190.51653364300728 21.389374420046806 3.2177773416042319
leaf_count=651 1177 979 379 27 229 180 94 413 682 98 20
internal_value=0 0.00517348 0.00038471 0.00598614 0.0129403 0.00833156 0.014906 -0.00417309 0.0102743 -0.00636322 -0.0070423
internal_weight=0 914.161 626.268 337.215 287.893 241.157 233.544 289.054 196.857 186.657 165.268
internal_count=4929 3752 2778 1268 974 889 745 1510 709 1097 999
is_linear=0
shrinkage=0.03


Tree=60
num_leaves=13
num_cat=0
split_feature=25 1 2 23 6 11 13 28 2 0 3 2
split_gain=49.3214 28.2515 19.0006 5.60014 5.02645 4.9132 3.59251 3.16339 1.12915 0.865282 0.407584 0.168292
threshold=1.0000000180025095e-35 5.5000000000000009 79.02500000000002 1.0000000180025095e-35 1.0000000180025095e-35 1.0000000180025095e-35 1.0000000180025095e-35 1.0000000180025095e-35 81.800000000000011 1.0000000180025095e-35 4263.7250000000013 103.20000000000002
decision_type=2 2 2 2 2 2 2 2 2 2 10 2
left_child=1 5 7 -4 8 6 -1 9 -5 10 -3 -2
right_child=11 2 3 4 -6 -7 -8 -9 -10 -11 -12 -13
leaf_value=0.015852659145177507 -0.015396641660610234 -0.0070803059017244228 0 0 0 0 0 0 0.01036963181562469 0 0 0
leaf_weight=205.79904183745384 88.145715929567814 161.43199206143618 96.057648688554764 6.3409628123044959 44.29938530921936 54.348723039031029 27.115310743451118 102.39679670333862 190.68609097599983 21.389374420046806 3.2177773416042319 26.893350906670094
leaf_count=651 980 979 379 27 180 229 94 413 682 98 20 197
internal_value=0 0.00504408 0.000344993 0.00581261 0.00809273 0.0126398 0.0145458 -0.0040674 0.00998524 -0.00621157 -0.00687536 -0.0137377
internal_weight=0 913.083 625.82 337.384 241.326 287.263 232.914 288.436 197.027 186.039 164.65 115.039
internal_count=4929 3752 2778 1268 889 974 745 1510 709 1097 999 1177
is_linear=0
shrinkage=0.03


Tree=61
num_leaves=16
num_cat=0
split_feature=25 24 26 19 2 11 3 1 2 1 28 2 1 3 2
split_gain=47.3637 27.4367 13.114 7.66377 6.28268 3.84801 3.65601 1.11594 0.185575 0.169868 0.161619 1.11259 0.148642 0.130848 0.0132272
threshold=1.0000000180025095e-35 1.0000000180025095e-35 1.0000000180025095e-35 1.0000000180025095e-35 99.875000000000014 1.0000000180025095e-35 3251.5750000000003 2.5000000000000004 19.625000000000004 66.500000000000014 1.0000000180025095e-35 105.97500000000001 40.500000000000007 3808.1000000000004 91.27500000000002
decision_type=2 2 2 2 2 2 10 2 2 2 2 2 2 10 2
left_child=1 2 7 5 9 6 12 8 -1 -3 11 -2 -4 14 -9
right_child=10 4 3 -5 -6 -7 -8 13 -10 -11 -12 -13 -14 -15 -16
leaf_value=0 -0.015919393579495983 -0.0079817779435491561 0.014022331941119605 0 0 0 0 -0.0009262869280430838 0.0035994670960520455 0 0 0 0 0 0
leaf_weight=5.5563387572765341 81.523822382092476 110.93254872411489 337.47807937860489 82.633946374058723 42.671174988150597 25.37048152089119 57.865178197622299 131.12673026323318 70.409823045134544 9.1110192537307721 14.34101466834545 18.094413727521896 10.856977790594099 12.588069975376127 15.399683147668837
leaf_count=24 929 774 1117 309 190 119 209 569 237 58 117 131 48 46 52
internal_value=0 0.00491814 0.00762289 0.0102846 -0.00372425 0.0118492 0.0125254 0 0.00323506 -0.00764672 -0.0135464 -0.0143778 0.013801 0 -0.000840937
internal_weight=0 912 749.285 514.205 162.715 431.571 406.2 235.081 75.9662 120.044 113.959 99.6182 348.335 159.114 146.526
internal_count=4929 3752 2730 1802 1022 1493 1374 928 261 832 1177 1060 1165 667 621
is_linear=0
shrinkage=0.03


Tree=62
num_leaves=12
num_cat=0
split_feature=28 1 2 26 1 0 11 2 11 1 1
split_gain=45.8697 24.6627 14.5425 8.58357 6.17387 6.08745 4.14746 0.833298 0.215974 0.161637 0.0263916
threshold=1.0000000180025095e-35 12.500000000000002 93.450000000000017 1.0000000180025095e-35 58.500000000000007 1.0000000180025095e-35 1.0000000180025095e-35 106.47500000000001 1.0000000180025095e-35 1.5000000000000002 10.500000000000002
decision_type=2 2 2 2 2 2 2 2 2 2 2
left_child=1 6 5 -2 7 -3 -1 8 -5 -8 -11
right_child=3 2 -4 4 -6 -7 9 -9 -10 10 -12
leaf_value=0.0059830539360093814 0 -0.013393050887759599 0 0.01331598348774621 0 0 0 0 0 -0.0017603140899469063 0
leaf_weight=154.42562321573496 107.82002597302198 218.53401106595993 105.01395995169878 291.04375819861889 27.852049246430397 36.679981373250484 28.979576699435711 7.2406899482011786 6.7187196388840666 34.611663870513439 4.8416364267468444
leaf_count=540 433 1691 525 988 149 195 113 30 33 199 33
internal_value=0 -0.00274207 -0.00798111 0.00942555 0.0117423 -0.011643 0.00321561 0.0129149 0.0131512 0 -0.00156424
internal_weight=0 583.086 360.228 440.675 332.855 255.214 222.859 305.003 297.762 68.4329 39.4533
internal_count=4929 3296 2411 1633 1200 1886 885 1051 1021 345 232
is_linear=0
shrinkage=0.03


Tree=63
num_leaves=15
num_cat=0
split_feature=25 1 10 9 13 11 24 2 1 2 2 27 2 28
split_gain=44.3805 26.5431 20.7438 9.11855 5.11206 3.20477 2.42947 0.679041 0.470842 0.341495 0.258207 1.267 0.0915509 0.0707299
threshold=1.0000000180025095e-35 2.5000000000000004 1.0000000180025095e-35 1.0000000180025095e-35 1.0000000180025095e-35 1.0000000180025095e-35 1.0000000180025095e-35 74.52500000000002 58.500000000000007 56.32500000000001 19.375000000000004 1.0000000180025095e-35 82.375000000000014 1.0000000180025095e-35
decision_type=2 2 2 2 2 2 2 2 2 2 2 2 2 2
left_child=1 10 5 -4 6 9 7 -5 -9 -3 -1 -12 -11 -2
right_child=13 2 3 4 -6 -7 -8 8 -10 12 11 -13 -14 -15
leaf_value=0 -0.014050370831159576 0 0 0 0 -0.0091688772675976287 0 0.012819930440039347 0 -0.0019802890001711262 0.015293622511153916 0 0 0
leaf_weight=3.8778999149799338 97.909588858485222 131.89404368400574 156.78421585261822 8.4889548420906049 60.06320096552372 71.26418125629425 33.172541871666908 166.91860082745552 10.172616377472876 79.384671710431576 173.04380679130554 10.122177943587301 4.1388404965400687 14.358998976647852
leaf_count=18 1060 604 570 29 244 486 161 538 42 433 570 35 22 117
internal_value=0 0.0047196 0.00104456 0.00567854 0.00875379 -0.00395129 0.010732 0.0120166 0.0123983 0 0.0145413 0.0147183 -0.00172303 -0.0132477
internal_weight=0 909.326 722.282 435.6 278.816 286.682 218.753 185.58 177.091 215.418 187.044 183.166 83.5235 112.269
internal_count=4929 3752 3129 1584 1014 1545 770 609 580 1059 623 605 455 1177
is_linear=0
shrinkage=0.03


Tree=64
num_leaves=14
num_cat=0
split_feature=25 1 10 9 13 11 24 2 1 2 2 2 2
split_gain=42.5018 25.1904 19.8382 8.69542 4.84256 3.05028 2.25597 0.627657 0.414351 0.323923 0.228973 0.128593 0.0889443
threshold=1.0000000180025095e-35 2.5000000000000004 1.0000000180025095e-35 1.0000000180025095e-35 1.0000000180025095e-35 1.0000000180025095e-35 1.0000000180025095e-35 74.52500000000002 58.500000000000007 56.32500000000001 19.375000000000004 103.20000000000002 82.375000000000014
decision_type=2 2 2 2 2 2 2 2 2 2 2 2 2
left_child=1 10 5 -4 6 9 7 -5 -9 -3 -1 -2 -11
right_child=11 2 3 4 -6 -7 -8 8 -10 12 -12 -13 -14
leaf_value=0 -0.014649925969093695 0 0 0 0 -0.0089946547683738259 0 0.012490972203069188 0 -0.0019343429300878853 0.014345294577361509 0 0
leaf_weight=3.8778999149799338 84.538432486355305 131.89404368400574 156.78421585261822 8.4889548420906049 60.06320096552372 70.858790993690491 33.172541871666908 166.70504555106163 10.172616377472876 79.308415792882442 182.91845795512199 26.652693249285221 4.1388404965400687
leaf_count=18 980 604 570 29 244 486 161 538 42 433 605 197 22
internal_value=0 0.00459596 0.000991739 0.00554032 0.0085452 -0.00387828 0.0104727 0.0117167 0.0120859 0 0.014175 -0.0130436 -0.00167874
internal_weight=0 908.383 721.587 435.387 278.602 286.2 218.539 185.367 176.878 215.341 186.796 111.191 83.4473
internal_count=4929 3752 3129 1584 1014 1545 770 609 580 1059 623 1177 455
is_linear=0
shrinkage=0.03


Tree=65
num_leaves=13
num_cat=0
split_feature=28 1 2 26 0 1 11 2 3 11 1 1
split_gain=41.2177 22.0625 13.5515 8.04363 5.72309 5.55853 3.68951 0.758027 0.303165 0.217243 0.116204 0.0299959
threshold=1.0000000180025095e-35 12.500000000000002 93.450000000000017 1.0000000180025095e-35 1.0000000180025095e-35 58.500000000000007 1.0000000180025095e-35 106.47500000000001 3251.5750000000003 1.0000000180025095e-35 1.5000000000000002 10.500000000000002
decision_type=2 2 2 2 2 2 2 2 10 2 2 2
left_child=1 6 4 -2 -3 7 -1 8 9 -5 -8 -12
right_child=3 2 -4 5 -6 -7 10 -9 -10 -11 11 -13
leaf_value=0.00550400615076379 0 -0.01297151130781421 0 0.013671582801491836 0 0 0 0 0 0 -0.0015558385322182137 0
leaf_weight=154.06990297883749 107.61626178771257 214.95521374791861 104.76226032525301 245.33329360932112 36.524520449340343 27.807461991906166 29.181332930922508 7.2472104132175437 44.306875497102737 6.6879779621958724 34.357459649443626 4.7803832665085784
leaf_count=540 433 1691 525 820 195 149 113 30 168 33 199 33
internal_value=0 -0.0026748 -0.0076791 0.00888091 -0.0112539 0.0111188 0.00283834 0.0122357 0.0124619 0.0134758 0 -0.00132984
internal_weight=0 578.631 356.242 438.999 251.48 331.383 222.389 303.575 296.328 252.021 68.3192 39.1378
internal_count=4929 3296 2411 1633 1886 1200 885 1051 1021 853 345 232
is_linear=0
shrinkage=0.03


Tree=66
num_leaves=15
num_cat=0
split_feature=25 10 3 1 24 11 2 13 2 1 2 2 28 6
split_gain=39.8132 23.6357 8.96915 8.5848 3.21693 1.28932 0.889288 0.526188 0.250343 0.600879 0.213231 0.0887467 0.0507225 0.00876192
threshold=1.0000000180025095e-35 1.0000000180025095e-35 3090.3500000000008 3.5000000000000004 1.0000000180025095e-35 1.0000000180025095e-35 57.050000000000004 1.0000000180025095e-35 43.175000000000004 22.500000000000004 82.375000000000014 19.425000000000001 1.0000000180025095e-35 1.0000000180025095e-35
decision_type=2 2 10 2 2 2 2 2 2 2 2 2 2 2
left_child=1 3 4 6 7 8 11 -3 -5 -10 -11 -1 -2 -4
right_child=12 2 13 5 -6 -7 -8 -9 9 10 -12 -13 -14 -15
leaf_value=0 -0.013526750120470063 0.012714200871032007 0.00023117671904398875 0 0 -0.0083938314769575941 0 0 0 -0.0031833098768125809 0 0.0053469092430107812 0 0
leaf_weight=5.3252354711294165 95.301105789840221 293.90181802213192 127.55496437847614 32.623641215264797 8.7097024470567685 63.989168077707291 8.3663214147090894 45.866540685296059 88.07096042484045 74.53905925899744 3.9432447701692572 114.64279860258102 14.266556113958357 38.306463435292244
leaf_count=25 1060 954 517 155 48 457 30 151 379 452 21 396 117 167
internal_value=0 0.00441288 0.00857622 0 0.0113387 -0.00409878 0.00447398 0.0118206 0 -0.00109897 -0.0027891 0.00518952 -0.0127465 0
internal_weight=0 905.84 514.339 391.5 348.478 263.166 128.334 339.768 199.177 166.553 78.4823 119.968 109.568 165.861
internal_count=4929 3752 1837 1915 1153 1464 451 1105 1007 852 473 421 1177 684
is_linear=0
shrinkage=0.03


Tree=67
num_leaves=13
num_cat=0
split_feature=1 10 1 9 11 13 28 6 2 26 24 0
split_gain=38.4093 33.0822 6.15194 6.83816 4.74815 4.1145 3.79255 2.38175 2.36642 2.40901 1.12513 0.457573
